{"learner":{"attributes":{"scikit_learn":"{\"_estimator_type\": \"classifier\"}"},"feature_names":["quantile_lag_1","quantile_lag_2","quantile_lag_3","quantile_lag_4","quantile_lag_5","quantile_lag_6","quantile_lag_7","quantile_lag_8","quantile_lag_9","quantile_lag_10","quantile_lag_11","quantile_lag_12","quantile_lag_13","quantile_lag_14","quantile_lag_15","quantile_lag_16","quantile_lag_17","quantile_lag_18","quantile_lag_19","quantile_lag_20","quantile_lag_21","quantile_lag_22","quantile_lag_23","quantile_lag_24","quantile_lag_25","quantile_lag_26","quantile_lag_27","quantile_lag_28","quantile_lag_29","quantile_lag_30","return_lag_1","return_lag_2","return_lag_3","return_lag_4","return_lag_5","return_lag_6","return_lag_7","return_lag_8","return_lag_9","return_lag_10","return_lag_11","return_lag_12","return_lag_13","return_lag_14","return_lag_15","return_lag_16","return_lag_17","return_lag_18","return_lag_19","return_lag_20","return_lag_21","return_lag_22","return_lag_23","return_lag_24","return_lag_25","return_lag_26","return_lag_27","return_lag_28","return_lag_29","return_lag_30","MA_2_q","MA_3_q","MA_5_q","MA_2_ret","MA_3_ret","MA_5_ret"],"feature_types":["float","float","float","float","float","float","float","float","float","float","float","float","float","float","float","float","float","float","float","float","float","float","float","float","float","float","float","float","float","float","float","float","float","float","float","float","float","float","float","float","float","float","float","float","float","float","float","float","float","float","float","float","float","float","float","float","float","float","float","float","float","float","float","float","float","float"],"gradient_booster":{"model":{"gbtree_model_param":{"num_parallel_tree":"1","num_trees":"1000"},"iteration_indptr":[0,5,10,15,20,25,30,35,40,45,50,55,60,65,70,75,80,85,90,95,100,105,110,115,120,125,130,135,140,145,150,155,160,165,170,175,180,185,190,195,200,205,210,215,220,225,230,235,240,245,250,255,260,265,270,275,280,285,290,295,300,305,310,315,320,325,330,335,340,345,350,355,360,365,370,375,380,385,390,395,400,405,410,415,420,425,430,435,440,445,450,455,460,465,470,475,480,485,490,495,500,505,510,515,520,525,530,535,540,545,550,555,560,565,570,575,580,585,590,595,600,605,610,615,620,625,630,635,640,645,650,655,660,665,670,675,680,685,690,695,700,705,710,715,720,725,730,735,740,745,750,755,760,765,770,775,780,785,790,795,800,805,810,815,820,825,830,835,840,845,850,855,860,865,870,875,880,885,890,895,900,905,910,915,920,925,930,935,940,945,950,955,960,965,970,975,980,985,990,995,1000],"tree_info":[0,1,2,3,4,0,1,2,3,4,0,1,2,3,4,0,1,2,3,4,0,1,2,3,4,0,1,2,3,4,0,1,2,3,4,0,1,2,3,4,0,1,2,3,4,0,1,2,3,4,0,1,2,3,4,0,1,2,3,4,0,1,2,3,4,0,1,2,3,4,0,1,2,3,4,0,1,2,3,4,0,1,2,3,4,0,1,2,3,4,0,1,2,3,4,0,1,2,3,4,0,1,2,3,4,0,1,2,3,4,0,1,2,3,4,0,1,2,3,4,0,1,2,3,4,0,1,2,3,4,0,1,2,3,4,0,1,2,3,4,0,1,2,3,4,0,1,2,3,4,0,1,2,3,4,0,1,2,3,4,0,1,2,3,4,0,1,2,3,4,0,1,2,3,4,0,1,2,3,4,0,1,2,3,4,0,1,2,3,4,0,1,2,3,4,0,1,2,3,4,0,1,2,3,4,0,1,2,3,4,0,1,2,3,4,0,1,2,3,4,0,1,2,3,4,0,1,2,3,4,0,1,2,3,4,0,1,2,3,4,0,1,2,3,4,0,1,2,3,4,0,1,2,3,4,0,1,2,3,4,0,1,2,3,4,0,1,2,3,4,0,1,2,3,4,0,1,2,3,4,0,1,2,3,4,0,1,2,3,4,0,1,2,3,4,0,1,2,3,4,0,1,2,3,4,0,1,2,3,4,0,1,2,3,4,0,1,2,3,4,0,1,2,3,4,0,1,2,3,4,0,1,2,3,4,0,1,2,3,4,0,1,2,3,4,0,1,2,3,4,0,1,2,3,4,0,1,2,3,4,0,1,2,3,4,0,1,2,3,4,0,1,2,3,4,0,1,2,3,4,0,1,2,3,4,0,1,2,3,4,0,1,2,3,4,0,1,2,3,4,0,1,2,3,4,0,1,2,3,4,0,1,2,3,4,0,1,2,3,4,0,1,2,3,4,0,1,2,3,4,0,1,2,3,4,0,1,2,3,4,0,1,2,3,4,0,1,2,3,4,0,1,2,3,4,0,1,2,3,4,0,1,2,3,4,0,1,2,3,4,0,1,2,3,4,0,1,2,3,4,0,1,2,3,4,0,1,2,3,4,0,1,2,3,4,0,1,2,3,4,0,1,2,3,4,0,1,2,3,4,0,1,2,3,4,0,1,2,3,4,0,1,2,3,4,0,1,2,3,4,0,1,2,3,4,0,1,2,3,4,0,1,2,3,4,0,1,2,3,4,0,1,2,3,4,0,1,2,3,4,0,1,2,3,4,0,1,2,3,4,0,1,2,3,4,0,1,2,3,4,0,1,2,3,4,0,1,2,3,4,0,1,2,3,4,0,1,2,3,4,0,1,2,3,4,0,1,2,3,4,0,1,2,3,4,0,1,2,3,4,0,1,2,3,4,0,1,2,3,4,0,1,2,3,4,0,1,2,3,4,0,1,2,3,4,0,1,2,3,4,0,1,2,3,4,0,1,2,3,4,0,1,2,3,4,0,1,2,3,4,0,1,2,3,4,0,1,2,3,4,0,1,2,3,4,0,1,2,3,4,0,1,2,3,4,0,1,2,3,4,0,1,2,3,4,0,1,2,3,4,0,1,2,3,4,0,1,2,3,4,0,1,2,3,4,0,1,2,3,4,0,1,2,3,4,0,1,2,3,4,0,1,2,3,4,0,1,2,3,4,0,1,2,3,4,0,1,2,3,4,0,1,2,3,4,0,1,2,3,4,0,1,2,3,4,0,1,2,3,4,0,1,2,3,4,0,1,2,3,4,0,1,2,3,4,0,1,2,3,4,0,1,2,3,4,0,1,2,3,4,0,1,2,3,4,0,1,2,3,4,0,1,2,3,4,0,1,2,3,4,0,1,2,3,4,0,1,2,3,4,0,1,2,3,4,0,1,2,3,4,0,1,2,3,4,0,1,2,3,4,0,1,2,3,4,0,1,2,3,4,0,1,2,3,4,0,1,2,3,4,0,1,2,3,4,0,1,2,3,4,0,1,2,3,4,0,1,2,3,4,0,1,2,3,4,0,1,2,3,4,0,1,2,3,4,0,1,2,3,4,0,1,2,3,4,0,1,2,3,4,0,1,2,3,4,0,1,2,3,4,0,1,2,3,4,0,1,2,3,4,0,1,2,3,4,0,1,2,3,4,0,1,2,3,4,0,1,2,3,4,0,1,2,3,4,0,1,2,3,4,0,1,2,3,4,0,1,2,3,4,0,1,2,3,4,0,1,2,3,4],"trees":[{"base_weights":[-4.214963E-2,-1.6030014E-1,1.1363636E-2,-2.7777776E-1,5.6634303E-3,-1.6611295E-3,-1.9101877E-2],"categories":[],"categories_nodes":[],"categories_segments":[],"categories_sizes":[],"default_left":[0,0,0,0,0,0,0],"id":0,"left_children":[1,3,-1,5,-1,-1,-1],"loss_changes":[2.7810333E0,2.19922E0,0E0,9.929168E-1,0E0,0E0,0E0],"parents":[2147483647,0,0,1,1,3,3],"right_children":[2,4,-1,6,-1,-1,-1],"split_conditions":[4.2106053E-3,3.202847E-3,1.1363636E-2,-2.8787334E-3,5.6634303E-3,-1.6611295E-3,-1.9101877E-2],"split_indices":[63,34,0,54,0,0,0],"split_type":[0,0,0,0,0,0,0],"sum_hessian":[6.5920006E1,4.8640003E1,1.728E1,3.3920002E1,1.4720001E1,1.4080001E1,1.9840002E1],"tree_param":{"num_deleted":"0","num_feature":"66","num_nodes":"7","size_leaf_vector":"1"}},{"base_weights":[8.883248E-2,3.1434184E-1,-1.20632276E-1,-4.0453073E-4,2.5E-2,5.4347827E-3,-1.44356955E-2],"categories":[],"categories_nodes":[],"categories_segments":[],"categories_sizes":[],"default_left":[0,0,0,0,0,0,0],"id":1,"left_children":[1,3,5,-1,-1,-1,-1],"loss_changes":[4.1014156E0,2.4780416E0,2.167102E0,0E0,0E0,0E0,0E0],"parents":[2147483647,0,0,1,1,2,2],"right_children":[2,4,6,-1,-1,-1,-1],"split_conditions":[-1.9538882E-3,1.1792453E-3,7.9113926E-4,-4.0453073E-4,2.5E-2,5.4347827E-3,-1.44356955E-2],"split_indices":[38,53,33,0,0,0,0],"split_type":[0,0,0,0,0,0,0],"sum_hessian":[6.88E1,3.0720001E1,3.808E1,1.4720001E1,1.6000002E1,1.76E1,2.0480001E1],"tree_param":{"num_deleted":"0","num_feature":"66","num_nodes":"7","size_leaf_vector":"1"}},{"base_weights":[-4.367934E-2,1.4264263E-2,-1.7973855E-1,-3.2769555E-1,4.1966427E-2,-1.9658754E-2,-4.310345E-3,-6.227758E-3,1.0057471E-2],"categories":[],"categories_nodes":[],"categories_segments":[],"categories_sizes":[],"default_left":[0,0,0,0,0,0,0,0,0],"id":2,"left_children":[1,-1,3,5,7,-1,-1,-1,-1],"loss_changes":[3.9967825E0,0E0,2.145054E0,2.5940275E-1,1.134829E0,0E0,0E0,0E0,0E0],"parents":[2147483647,0,0,2,2,3,3,4,4],"right_children":[2,-1,4,6,8,-1,-1,-1,-1],"split_conditions":[-9.9166995E-3,1.4264263E-2,-7.8094495E-4,2.108815E-3,3E0,-1.9658754E-2,-4.310345E-3,-6.227758E-3,1.0057471E-2],"split_indices":[56,0,37,52,28,0,0,0,0],"split_type":[0,0,0,0,0,0,0,0,0],"sum_hessian":[6.7840004E1,1.6640001E1,5.1200005E1,2.7840002E1,2.3360003E1,1.6960001E1,1.0880001E1,1.24800005E1,1.0880001E1],"tree_param":{"num_deleted":"0","num_feature":"66","num_nodes":"9","size_leaf_vector":"1"}},{"base_weights":[4.535752E-2,-1.3157894E-1,3.274559E-1,6.1475406E-3,-2.5773194E-1,2.2769516E-2,1.4822134E-3,-1.8769968E-2,-1.2626263E-3],"categories":[],"categories_nodes":[],"categories_segments":[],"categories_sizes":[],"default_left":[0,0,0,0,0,0,0,0,0],"id":3,"left_children":[1,3,5,-1,7,-1,-1,-1,-1],"loss_changes":[4.1723785E0,2.0251193E0,1.0750704E0,0E0,9.665861E-1,0E0,0E0,0E0,0E0],"parents":[2147483647,0,0,1,1,2,2,4,4],"right_children":[2,4,6,-1,8,-1,-1,-1,-1],"split_conditions":[3.322259E-3,-7.142857E-3,1.3429256E-2,6.1475406E-3,1.1025359E-3,2.2769516E-2,1.4822134E-3,-1.8769968E-2,-1.2626263E-3],"split_indices":[40,53,40,0,37,0,0,0,0],"split_type":[0,0,0,0,0,0,0,0,0],"sum_hessian":[6.496001E1,4.3200005E1,2.1760002E1,1.4400001E1,2.8800001E1,1.152E1,1.0240001E1,1.5040001E1,1.3760001E1],"tree_param":{"num_deleted":"0","num_feature":"66","num_nodes":"9","size_leaf_vector":"1"}},{"base_weights":[-1.9286402E-2,2.0588234E-1,-1.458616E-1,-5.9288535E-3,1.9781144E-2,-2.2988504E-1,6.4229253E-3,3.4129692E-3,-1.814059E-2],"categories":[],"categories_nodes":[],"categories_segments":[],"categories_sizes":[],"default_left":[0,0,0,0,0,0,0,0,0],"id":4,"left_children":[1,3,5,-1,-1,7,-1,-1,-1],"loss_changes":[2.664728E0,2.5622635E0,1.6542948E0,0E0,0E0,2.1784937E0,0E0,0E0,0E0],"parents":[2147483647,0,0,1,1,2,2,5,5],"right_children":[2,4,6,-1,-1,8,-1,-1,-1],"split_conditions":[-5.328597E-3,-1.4738394E-3,4.043457E-3,-5.9288535E-3,1.9781144E-2,-8.17757E-3,6.4229253E-3,3.4129692E-3,-1.814059E-2],"split_indices":[58,36,64,0,0,30,0,0,0],"split_type":[0,0,0,0,0,0,0,0,0],"sum_hessian":[7.296001E1,2.4000002E1,4.8960003E1,1.0240001E1,1.3760001E1,3.872E1,1.0240001E1,1.3440001E1,2.5280003E1],"tree_param":{"num_deleted":"0","num_feature":"66","num_nodes":"9","size_leaf_vector":"1"}},{"base_weights":[-1.6622521E-1,-2.3077844E-1,6.413504E-3,-3.406435E-1,8.869359E-4,-1.9911211E-2,-3.414327E-3],"categories":[],"categories_nodes":[],"categories_segments":[],"categories_sizes":[],"default_left":[0,0,0,0,0,0,0],"id":5,"left_children":[1,3,-1,5,-1,-1,-1],"loss_changes":[1.7569244E0,1.878911E0,0E0,4.601302E-1,0E0,0E0,0E0],"parents":[2147483647,0,0,1,1,3,3],"right_children":[2,4,-1,6,-1,-1,-1],"split_conditions":[1.2756088E-2,3.7144036E-3,6.413504E-3,6.0305074E-3,8.869359E-4,-1.9911211E-2,-3.414327E-3],"split_indices":[36,34,0,33,0,0,0],"split_type":[0,0,0,0,0,0,0],"sum_hessian":[6.6846756E1,5.6602997E1,1.0243759E1,3.668026E1,1.9922735E1,2.6463942E1,1.0216318E1],"tree_param":{"num_deleted":"0","num_feature":"66","num_nodes":"7","size_leaf_vector":"1"}},{"base_weights":[-3.989694E-3,-2.0869054E-1,2.2525515E-1,-1.3915977E-2,4.413508E-4,1.9871779E-2,-6.7197355E-3],"categories":[],"categories_nodes":[],"categories_segments":[],"categories_sizes":[],"default_left":[0,0,0,0,0,0,0],"id":6,"left_children":[1,3,5,-1,-1,-1,-1],"loss_changes":[4.113905E0,7.2446394E-1,3.1001582E0,0E0,0E0,0E0,0E0],"parents":[2147483647,0,0,1,1,2,2],"right_children":[2,4,6,-1,-1,-1,-1],"split_conditions":[3.6616623E-4,5.3691277E-3,4.2775664E-3,-1.3915977E-2,4.413508E-4,1.9871779E-2,-6.7197355E-3],"split_indices":[43,51,52,0,0,0,0],"split_type":[0,0,0,0,0,0,0],"sum_hessian":[6.764931E1,3.6211437E1,3.1437868E1,2.5313221E1,1.0898216E1,2.054935E1,1.0888517E1],"tree_param":{"num_deleted":"0","num_feature":"66","num_nodes":"7","size_leaf_vector":"1"}},{"base_weights":[4.96226E-4,-1.3887468E-2,1.6036856E-1,2.1135096E-2,-1.1175877E-1,-1.5782615E-2,4.7464683E-3],"categories":[],"categories_nodes":[],"categories_segments":[],"categories_sizes":[],"default_left":[0,0,0,0,0,0,0],"id":7,"left_children":[1,-1,3,-1,5,-1,-1],"loss_changes":[3.9485614E0,0E0,4.4953938E0,0E0,1.7986293E0,0E0,0E0],"parents":[2147483647,0,0,2,2,4,4],"right_children":[2,-1,4,-1,6,-1,-1],"split_conditions":[-6.329114E-3,-1.3887468E-2,2E0,2.1135096E-2,-3.8153375E-4,-1.5782615E-2,4.7464683E-3],"split_indices":[57,0,12,0,33,0,0],"split_type":[0,0,0,0,0,0,0],"sum_hessian":[6.875094E1,2.2397175E1,4.6353767E1,2.078428E1,2.5569487E1,1.0217863E1,1.5351623E1],"tree_param":{"num_deleted":"0","num_feature":"66","num_nodes":"7","size_leaf_vector":"1"}},{"base_weights":[2.815966E-2,-1.6178761E-1,3.8197026E-1,-3.0601E-1,4.837741E-3,3.0761985E-2,-3.221613E-3,-9.4610866E-4,-1.9674402E-2],"categories":[],"categories_nodes":[],"categories_segments":[],"categories_sizes":[],"default_left":[0,0,0,0,0,0,0,0,0],"id":8,"left_children":[1,3,5,7,-1,-1,-1,-1,-1],"loss_changes":[6.1981173E0,2.5725276E0,3.726564E0,9.7008204E-1,0E0,0E0,0E0,0E0,0E0],"parents":[2147483647,0,0,1,1,2,2,3,3],"right_children":[2,4,6,8,-1,-1,-1,-1,-1],"split_conditions":[3.7144036E-3,1.1025359E-3,2.182359E-3,-5.8479533E-3,4.837741E-3,3.0761985E-2,-3.221613E-3,-9.4610866E-4,-1.9674402E-2],"split_indices":[40,41,63,57,0,0,0,0,0],"split_type":[0,0,0,0,0,0,0,0,0],"sum_hessian":[7.303113E1,5.105106E1,2.1980064E1,3.1592108E1,1.9458954E1,1.1952213E1,1.0027851E1,1.0218807E1,2.13733E1],"tree_param":{"num_deleted":"0","num_feature":"66","num_nodes":"9","size_leaf_vector":"1"}},{"base_weights":[1.008506E-1,-9.474462E-3,2.1624936E-1,3.3134878E-1,-5.4591843E-3,2.8446762E-2,8.561274E-2,-9.083241E-3,1.3847207E-2],"categories":[],"categories_nodes":[],"categories_segments":[],"categories_sizes":[],"default_left":[0,0,0,0,0,0,0,0,0],"id":9,"left_children":[1,-1,3,5,-1,-1,7,-1,-1],"loss_changes":[3.099584E0,0E0,2.6885498E0,2.3367467E0,0E0,0E0,2.3209326E0,0E0,0E0],"parents":[2147483647,0,0,2,2,3,3,6,6],"right_children":[2,-1,4,6,-1,-1,8,-1,-1],"split_conditions":[-7.871064E-3,-9.474462E-3,5.4829186E-3,-5.4012346E-3,-5.4591843E-3,2.8446762E-2,2.946128E-3,-9.083241E-3,1.3847207E-2],"split_indices":[42,0,59,34,0,0,34,0,0],"split_type":[0,0,0,0,0,0,0,0,0],"sum_hessian":[7.0281334E1,1.816311E1,5.211822E1,3.8366833E1,1.375139E1,1.2819851E1,2.5546982E1,1.0868966E1,1.4678015E1],"tree_param":{"num_deleted":"0","num_feature":"66","num_nodes":"9","size_leaf_vector":"1"}},{"base_weights":[-4.6323083E-2,1.2370658E-1,-2.4145514E-1,-4.4289384E-2,1.7468791E-2,-1.9160319E-3,-1.7013734E-2,7.293953E-3,-1.0077738E-2],"categories":[],"categories_nodes":[],"categories_segments":[],"categories_sizes":[],"default_left":[0,0,0,0,0,0,0,0,0],"id":10,"left_children":[1,3,5,7,-1,-1,-1,-1,-1],"loss_changes":[2.8981514E0,1.9926622E0,6.699188E-1,1.3905873E0,0E0,0E0,0E0,0E0,0E0],"parents":[2147483647,0,0,1,1,2,2,3,3],"right_children":[2,4,6,8,-1,-1,-1,-1,-1],"split_conditions":[7.34484E-4,3.318584E-3,-2.814636E-3,8.156607E-4,1.7468791E-2,-1.9160319E-3,-1.7013734E-2,7.293953E-3,-1.0077738E-2],"split_indices":[46,36,53,43,0,0,0,0,0],"split_type":[0,0,0,0,0,0,0,0,0],"sum_hessian":[6.834821E1,3.8479343E1,2.9868874E1,2.6665813E1,1.1813529E1,1.4316849E1,1.5552024E1,1.23979645E1,1.4267848E1],"tree_param":{"num_deleted":"0","num_feature":"66","num_nodes":"9","size_leaf_vector":"1"}},{"base_weights":[-3.6360826E-2,1.4219202E-1,-2.3629968E-1,-4.7335187E-3,1.7055945E-2,-1.6007712E-2,-1.376742E-3],"categories":[],"categories_nodes":[],"categories_segments":[],"categories_sizes":[],"default_left":[0,0,0,0,0,0,0],"id":11,"left_children":[1,3,5,-1,-1,-1,-1],"loss_changes":[3.0174556E0,2.4866576E0,5.9791136E-1,0E0,0E0,0E0,0E0],"parents":[2147483647,0,0,1,1,2,2],"right_children":[2,4,6,-1,-1,-1,-1],"split_conditions":[-7.3394494E-4,-1.5993603E-3,9.3457947E-4,-4.7335187E-3,1.7055945E-2,-1.6007712E-2,-1.376742E-3],"split_indices":[31,43,45,0,0,0,0],"split_type":[0,0,0,0,0,0,0],"sum_hessian":[6.511156E1,3.5920994E1,2.9190561E1,1.8789392E1,1.71316E1,1.7018929E1,1.2171633E1],"tree_param":{"num_deleted":"0","num_feature":"66","num_nodes":"7","size_leaf_vector":"1"}},{"base_weights":[-2.5401914E-3,-1.2290952E-1,1.2348495E-2,1.1256603E-2,-2.3516026E-1,7.434084E-4,-3.1602892E-1,-3.5961594E-3,-1.9881014E-2],"categories":[],"categories_nodes":[],"categories_segments":[],"categories_sizes":[],"default_left":[0,0,0,0,0,0,0,0,0],"id":12,"left_children":[1,3,-1,-1,5,-1,7,-1,-1],"loss_changes":[2.776031E0,2.9598675E0,0E0,0E0,1.0969968E0,0E0,5.0449204E-1,0E0,0E0],"parents":[2147483647,0,0,1,1,4,4,6,6],"right_children":[2,4,-1,-1,6,-1,8,-1,-1],"split_conditions":[4.8173424E-3,-1.1189391E-2,1.2348495E-2,1.1256603E-2,-6.5014223E-3,7.434084E-4,-4.1288193E-3,-3.5961594E-3,-1.9881014E-2],"split_indices":[40,59,0,0,43,0,47,0,0],"split_type":[0,0,0,0,0,0,0,0,0],"sum_hessian":[7.232449E1,5.2210793E1,2.0113705E1,1.0280177E1,4.1930614E1,1.2242106E1,2.9688507E1,1.2150772E1,1.7537735E1],"tree_param":{"num_deleted":"0","num_feature":"66","num_nodes":"9","size_leaf_vector":"1"}},{"base_weights":[9.476078E-2,-1.2627754E-1,2.4975081E-1,4.313004E-3,-1.1209761E-2,-7.151533E-3,4.557432E-1,2.8941998E-2,8.705559E-3],"categories":[],"categories_nodes":[],"categories_segments":[],"categories_sizes":[],"default_left":[0,0,0,0,0,0,0,0,0],"id":13,"left_children":[1,3,5,-1,-1,-1,7,-1,-1],"loss_changes":[3.1327915E0,1.0370533E0,4.8349266E0,0E0,0E0,0E0,2.507248E-1,0E0,0E0],"parents":[2147483647,0,0,1,1,2,2,6,6],"right_children":[2,4,6,-1,-1,-1,8,-1,-1],"split_conditions":[-2.5622256E-3,-5.033557E-3,-5.288853E-3,4.313004E-3,-1.1209761E-2,-7.151533E-3,-1.6960652E-3,2.8941998E-2,8.705559E-3],"split_indices":[33,30,34,0,0,0,57,0,0],"split_type":[0,0,0,0,0,0,0,0,0],"sum_hessian":[7.2239235E1,3.0538883E1,4.170035E1,1.0007471E1,2.0531412E1,1.5397418E1,2.6302933E1,1.0959607E1,1.5343325E1],"tree_param":{"num_deleted":"0","num_feature":"66","num_nodes":"9","size_leaf_vector":"1"}},{"base_weights":[-2.8606417E-2,1.326336E-1,-2.2747514E-1,-6.599907E-3,2.8523389E-1,-9.4390486E-4,-1.4819986E-2,-3.3944358E-5,2.1214366E-2],"categories":[],"categories_nodes":[],"categories_segments":[],"categories_sizes":[],"default_left":[0,0,0,0,0,0,0,0,0],"id":14,"left_children":[1,3,5,-1,7,-1,-1,-1,-1],"loss_changes":[2.7879336E0,2.3607407E0,4.9613988E-1,0E0,1.3676717E0,0E0,0E0,0E0,0E0],"parents":[2147483647,0,0,1,1,2,2,4,4],"right_children":[2,4,6,-1,8,-1,-1,-1,-1],"split_conditions":[4.0584416E-4,2E0,-4.8123195E-4,-6.599907E-3,-4.239084E-3,-9.4390486E-4,-1.4819986E-2,-3.3944358E-5,2.1214366E-2],"split_indices":[43,7,32,0,54,0,0,0,0],"split_type":[0,0,0,0,0,0,0,0,0],"sum_hessian":[6.75356E1,3.9135597E1,2.8400003E1,1.4807409E1,2.4328186E1,1.0217166E1,1.8182838E1,1.121657E1,1.3111617E1],"tree_param":{"num_deleted":"0","num_feature":"66","num_nodes":"9","size_leaf_vector":"1"}},{"base_weights":[1.3850274E-3,-1.202709E-2,1.3714883E-1,2.9716268E-1,-6.2755877E-3,2.302506E-2,-3.5894252E-3],"categories":[],"categories_nodes":[],"categories_segments":[],"categories_sizes":[],"default_left":[0,0,0,0,0,0,0],"id":15,"left_children":[1,-1,3,5,-1,-1,-1],"loss_changes":[2.9161568E0,0E0,2.7604926E0,2.6368973E0,0E0,0E0,0E0],"parents":[2147483647,0,0,2,2,3,3],"right_children":[2,-1,4,6,-1,-1,-1],"split_conditions":[-6.6825775E-3,-1.202709E-2,1.6927634E-3,3.816794E-3,-6.2755877E-3,2.302506E-2,-3.5894252E-3],"split_indices":[35,0,36,43,0,0,0],"split_type":[0,0,0,0,0,0,0],"sum_hessian":[6.8741486E1,2.1935482E1,4.6806007E1,2.8270155E1,1.853585E1,1.7875242E1,1.0394914E1],"tree_param":{"num_deleted":"0","num_feature":"66","num_nodes":"7","size_leaf_vector":"1"}},{"base_weights":[5.2891433E-2,-1.6832656E-1,2.0798823E-1,-1.3925144E-2,5.849496E-4,-8.794027E-3,3.533301E-1,2.5166804E-2,-4.7942295E-4],"categories":[],"categories_nodes":[],"categories_segments":[],"categories_sizes":[],"default_left":[0,0,0,0,0,0,0,0,0],"id":16,"left_children":[1,3,5,-1,-1,-1,7,-1,-1],"loss_changes":[3.044304E0,7.841276E-1,3.4464302E0,0E0,0E0,0E0,2.2286634E0,0E0,0E0],"parents":[2147483647,0,0,1,1,2,2,6,6],"right_children":[2,4,6,-1,-1,-1,8,-1,-1],"split_conditions":[2E0,-7.7041605E-4,-8.17757E-3,-1.3925144E-2,5.849496E-4,-8.794027E-3,3.3860046E-3,2.5166804E-2,-4.7942295E-4],"split_indices":[13,35,56,0,0,0,52,0,0],"split_type":[0,0,0,0,0,0,0,0,0],"sum_hessian":[6.852487E1,2.7890722E1,4.063415E1,1.3908488E1,1.3982234E1,1.0582662E1,3.005149E1,1.8525276E1,1.1526215E1],"tree_param":{"num_deleted":"0","num_feature":"66","num_nodes":"9","size_leaf_vector":"1"}},{"base_weights":[-4.1204948E-2,2.2520818E-1,-2.6773503E-1,-2.8267717E-3,3.4795246E-1,-5.462521E-5,-1.740709E-2,2.3614997E-2,2.990728E-3],"categories":[],"categories_nodes":[],"categories_segments":[],"categories_sizes":[],"default_left":[0,0,0,0,0,0,0,0,0],"id":17,"left_children":[1,3,5,-1,7,-1,-1,-1,-1],"loss_changes":[5.4885974E0,1.6710877E0,1.0321848E0,0E0,8.315644E-1,0E0,0E0,0E0,0E0],"parents":[2147483647,0,0,1,1,2,2,4,4],"right_children":[2,4,6,-1,8,-1,-1,-1,-1],"split_conditions":[-1.747488E-3,-2.3850144E-3,-6.190823E-3,-2.8267717E-3,2.1542439E-3,-5.462521E-5,-1.740709E-2,2.3614997E-2,2.990728E-3],"split_indices":[41,65,45,0,45,0,0,0,0],"split_type":[0,0,0,0,0,0,0,0,0],"sum_hessian":[7.095423E1,3.2633553E1,3.832068E1,1.1539703E1,2.109385E1,1.1226745E1,2.7093937E1,1.0270223E1,1.0823627E1],"tree_param":{"num_deleted":"0","num_feature":"66","num_nodes":"9","size_leaf_vector":"1"}},{"base_weights":[4.4749468E-3,-1.6071287E-1,2.0777233E-1,4.6602054E-3,-2.6392874E-1,-4.4444916E-3,1.785365E-2,-1.7582081E-2,-9.314331E-4],"categories":[],"categories_nodes":[],"categories_segments":[],"categories_sizes":[],"default_left":[0,0,0,0,0,0,0,0,0],"id":18,"left_children":[1,3,5,-1,7,-1,-1,-1,-1],"loss_changes":[2.904225E0,1.5004578E0,2.030276E0,0E0,7.228689E-1,0E0,0E0,0E0,0E0],"parents":[2147483647,0,0,1,1,2,2,4,4],"right_children":[2,4,6,-1,8,-1,-1,-1,-1],"split_conditions":[7.9113926E-4,1.8E0,-2.814636E-3,4.6602054E-3,3.8350911E-3,-4.4444916E-3,1.785365E-2,-1.7582081E-2,-9.314331E-4],"split_indices":[35,62,49,0,30,0,0,0,0],"split_type":[0,0,0,0,0,0,0,0,0],"sum_hessian":[6.6537704E1,3.7865257E1,2.867245E1,1.1223873E1,2.6641384E1,1.0953657E1,1.7718792E1,1.6430946E1,1.0210437E1],"tree_param":{"num_deleted":"0","num_feature":"66","num_nodes":"9","size_leaf_vector":"1"}},{"base_weights":[-7.939916E-2,1.3458024E-1,-2.5214198E-1,-1.0325875E-2,1.7419657E-2,-1.7495949E-2,-2.2160206E-3],"categories":[],"categories_nodes":[],"categories_segments":[],"categories_sizes":[],"default_left":[0,0,0,0,0,0,0],"id":19,"left_children":[1,3,5,-1,-1,-1,-1],"loss_changes":[3.2021818E0,3.718134E0,7.864449E-1,0E0,0E0,0E0,0E0],"parents":[2147483647,0,0,1,1,2,2],"right_children":[2,4,6,-1,-1,-1,-1],"split_conditions":[-2.814636E-3,-4.789272E-3,2.5622256E-3,-1.0325875E-2,1.7419657E-2,-1.7495949E-2,-2.2160206E-3],"split_indices":[32,42,41,0,0,0,0],"split_type":[0,0,0,0,0,0,0],"sum_hessian":[6.745088E1,3.1116085E1,3.6334793E1,1.2120824E1,1.8995262E1,2.0059587E1,1.6275208E1],"tree_param":{"num_deleted":"0","num_feature":"66","num_nodes":"7","size_leaf_vector":"1"}},{"base_weights":[1.9113943E-2,-1.04946174E-1,1.819524E-2,1.090213E-1,-2.2948158E-1,1.1517852E-2,-3.322807E-3,1.631791E-3,-1.5933437E-2],"categories":[],"categories_nodes":[],"categories_segments":[],"categories_sizes":[],"default_left":[0,0,0,0,0,0,0,0,0],"id":20,"left_children":[1,3,-1,5,7,-1,-1,-1,-1],"loss_changes":[3.6564827E0,1.9571346E0,0E0,7.992178E-1,1.1258864E0,0E0,0E0,0E0,0E0],"parents":[2147483647,0,0,1,1,3,3,4,4],"right_children":[2,4,-1,6,8,-1,-1,-1,-1],"split_conditions":[4E0,-4.020468E-3,1.819524E-2,-1.8175209E-3,-9.540636E-3,1.1517852E-2,-3.322807E-3,1.631791E-3,-1.5933437E-2],"split_indices":[20,56,0,55,50,0,0,0,0],"split_type":[0,0,0,0,0,0,0,0,0],"sum_hessian":[6.6553925E1,5.4059032E1,1.2494889E1,2.0346664E1,3.3712368E1,1.0180089E1,1.0166575E1,1.0168455E1,2.3543915E1],"tree_param":{"num_deleted":"0","num_feature":"66","num_nodes":"9","size_leaf_vector":"1"}},{"base_weights":[-2.5606127E-2,-1.3180685E-1,1.7666316E-2,-3.051104E-1,5.242474E-2,-1.6302522E-3,-1.99218E-2,1.18941665E-2,-9.852335E-2,3.8743436E-3,-1.1204609E-2],"categories":[],"categories_nodes":[],"categories_segments":[],"categories_sizes":[],"default_left":[0,0,0,0,0,0,0,0,0,0,0],"id":21,"left_children":[1,3,-1,5,7,-1,-1,-1,9,-1,-1],"loss_changes":[3.7663748E0,2.4379182E0,0E0,8.4234715E-1,1.4414098E0,0E0,0E0,0E0,8.552779E-1,0E0,0E0],"parents":[2147483647,0,0,1,1,3,3,4,4,8,8],"right_children":[2,4,-1,6,8,-1,-1,-1,10,-1,-1],"split_conditions":[1.1134904E-2,-2.814636E-3,1.7666316E-2,-2.8787334E-3,-4.719207E-3,-1.6302522E-3,-1.99218E-2,1.18941665E-2,-3.3100406E-3,3.8743436E-3,-1.1204609E-2],"split_indices":[59,30,0,34,38,0,0,0,34,0,0],"split_type":[0,0,0,0,0,0,0,0,0,0,0],"sum_hessian":[7.20186E1,6.1346947E1,1.0671651E1,2.8230116E1,3.3116833E1,1.0643987E1,1.758613E1,1.227553E1,2.0841303E1,1.0272058E1,1.0569244E1],"tree_param":{"num_deleted":"0","num_feature":"66","num_nodes":"11","size_leaf_vector":"1"}},{"base_weights":[-2.5753032E-2,-1.4009098E-2,1.4811727E-1,-9.86923E-2,1.9775314E-2,5.113342E-3,-1.2323463E-2],"categories":[],"categories_nodes":[],"categories_segments":[],"categories_sizes":[],"default_left":[0,0,0,0,0,0,0],"id":22,"left_children":[1,-1,3,5,-1,-1,-1],"loss_changes":[3.6098647E0,0E0,3.4092834E0,1.2247549E0,0E0,0E0,0E0],"parents":[2147483647,0,0,2,2,3,3],"right_children":[2,-1,4,6,-1,-1,-1],"split_conditions":[-6.329114E-3,-1.4009098E-2,-8.3022E-4,-3.6057692E-3,1.9775314E-2,5.113342E-3,-1.2323463E-2],"split_indices":[57,0,40,59,0,0,0],"split_type":[0,0,0,0,0,0,0],"sum_hessian":[6.2220562E1,2.277658E1,3.944398E1,2.275396E1,1.6690023E1,1.0946995E1,1.1806964E1],"tree_param":{"num_deleted":"0","num_feature":"66","num_nodes":"7","size_leaf_vector":"1"}},{"base_weights":[4.3963782E-2,2.3059818E-1,-1.9124839E-1,3.6834618E-1,-3.6989679E-3,-1.5868861E-2,3.3942584E-3,2.6452685E-2,4.555672E-3],"categories":[],"categories_nodes":[],"categories_segments":[],"categories_sizes":[],"default_left":[0,0,0,0,0,0,0,0,0],"id":23,"left_children":[1,3,5,7,-1,-1,-1,-1,-1],"loss_changes":[4.059834E0,2.3911374E0,1.586156E0,1.1416845E0,0E0,0E0,0E0,0E0,0E0],"parents":[2147483647,0,0,1,1,2,2,3,3],"right_children":[2,4,6,8,-1,-1,-1,-1,-1],"split_conditions":[8.9565606E-4,1.4398817E-3,2.8395646E-3,-3.3100406E-3,-3.6989679E-3,-1.5868861E-2,3.3942584E-3,2.6452685E-2,4.555672E-3],"split_indices":[59,63,36,55,0,0,0,0,0],"split_type":[0,0,0,0,0,0,0,0,0],"sum_hessian":[7.24357E1,4.04979E1,3.1937805E1,2.6444466E1,1.4053431E1,1.997008E1,1.1967726E1,1.0990228E1,1.5454238E1],"tree_param":{"num_deleted":"0","num_feature":"66","num_nodes":"9","size_leaf_vector":"1"}},{"base_weights":[-7.253355E-2,1.1154435E-2,-1.8111648E-1,-2.9581496E-1,3.0150574E-3,-1.718297E-2,-3.7099514E-3],"categories":[],"categories_nodes":[],"categories_segments":[],"categories_sizes":[],"default_left":[0,0,0,0,0,0,0],"id":24,"left_children":[1,-1,3,5,-1,-1,-1],"loss_changes":[2.8620152E0,0E0,1.8819473E0,2.0518708E-1,0E0,0E0,0E0],"parents":[2147483647,0,0,2,2,3,3],"right_children":[2,-1,4,6,-1,-1,-1],"split_conditions":[1E0,1.1154435E-2,2.46063E-3,4.10509E-3,3.0150574E-3,-1.718297E-2,-3.7099514E-3],"split_indices":[5,0,37,40,0,0,0],"split_type":[0,0,0,0,0,0,0],"sum_hessian":[6.657324E1,1.50509205E1,5.1522324E1,3.340041E1,1.8121914E1,2.2940767E1,1.0459642E1],"tree_param":{"num_deleted":"0","num_feature":"66","num_nodes":"7","size_leaf_vector":"1"}},{"base_weights":[-7.294514E-2,9.1712564E-2,-3.177468E-1,-8.111681E-3,2.2861107E-1,-1.9240478E-2,-3.8950797E-3,2.6541715E-2,-6.846347E-3],"categories":[],"categories_nodes":[],"categories_segments":[],"categories_sizes":[],"default_left":[0,0,0,0,0,0,0,0,0],"id":25,"left_children":[1,3,5,-1,7,-1,-1,-1,-1],"loss_changes":[3.7470248E0,2.4225197E0,2.9076767E-1,0E0,5.4214334E0,0E0,0E0,0E0,0E0],"parents":[2147483647,0,0,1,1,2,2,4,4],"right_children":[2,4,6,-1,8,-1,-1,-1,-1],"split_conditions":[3.7753657E-3,-6.6137565E-3,3.6616623E-4,-8.111681E-3,2.9143898E-3,-1.9240478E-2,-3.8950797E-3,2.6541715E-2,-6.846347E-3],"split_indices":[30,39,33,0,39,0,0,0,0],"split_type":[0,0,0,0,0,0,0,0,0],"sum_hessian":[7.572913E1,4.9014652E1,2.6714481E1,1.6519814E1,3.249484E1,1.6153692E1,1.056079E1,1.5312562E1,1.7182276E1],"tree_param":{"num_deleted":"0","num_feature":"66","num_nodes":"9","size_leaf_vector":"1"}},{"base_weights":[-1.7712617E-2,2.1782085E-1,-1.708798E-1,1.723445E-2,-3.3334557E-3,-2.7319452E-1,3.982281E-3,-8.2460576E-4,-1.7314961E-2],"categories":[],"categories_nodes":[],"categories_segments":[],"categories_sizes":[],"default_left":[0,0,0,0,0,0,0,0,0],"id":26,"left_children":[1,3,5,-1,-1,7,-1,-1,-1],"loss_changes":[3.4703786E0,1.6098672E0,1.6950977E0,0E0,0E0,7.5329876E-1,0E0,0E0,0E0],"parents":[2147483647,0,0,1,1,2,2,5,5],"right_children":[2,4,6,-1,-1,8,-1,-1,-1],"split_conditions":[-4.3222005E-3,1.4919806E-3,7.939659E-3,1.723445E-2,-3.3334557E-3,-7.200339E-3,3.982281E-3,-8.2460576E-4,-1.7314961E-2],"split_indices":[48,52,48,0,0,33,0,0,0],"split_type":[0,0,0,0,0,0,0,0,0],"sum_hessian":[7.58789E1,2.823669E1,4.764221E1,1.8064709E1,1.0171981E1,3.31847E1,1.4457512E1,1.007233E1,2.3112368E1],"tree_param":{"num_deleted":"0","num_feature":"66","num_nodes":"9","size_leaf_vector":"1"}},{"base_weights":[-2.4857072E-3,-1.7399713E-1,2.068475E-1,-1.5844792E-2,2.884066E-3,-3.8277877E-3,1.7465483E-2],"categories":[],"categories_nodes":[],"categories_segments":[],"categories_sizes":[],"default_left":[0,0,0,0,0,0,0],"id":27,"left_children":[1,3,5,-1,-1,-1,-1],"loss_changes":[3.3726442E0,1.8895835E0,1.9776112E0,0E0,0E0,0E0,0E0],"parents":[2147483647,0,0,1,1,2,2],"right_children":[2,4,6,-1,-1,-1,-1],"split_conditions":[3E0,3.776435E-4,2E0,-1.5844792E-2,2.884066E-3,-3.8277877E-3,1.7465483E-2],"split_indices":[25,57,62,0,0,0,0],"split_type":[0,0,0,0,0,0,0],"sum_hessian":[7.391311E1,4.1554558E1,3.2358555E1,2.3426739E1,1.8127817E1,1.2372296E1,1.9986258E1],"tree_param":{"num_deleted":"0","num_feature":"66","num_nodes":"7","size_leaf_vector":"1"}},{"base_weights":[-1.7895082E-2,9.801643E-2,-1.3525933E-2,-6.2860414E-2,1.5354588E-2,-1.0248299E-2,7.662644E-3],"categories":[],"categories_nodes":[],"categories_segments":[],"categories_sizes":[],"default_left":[0,0,0,0,0,0,0],"id":28,"left_children":[1,3,-1,5,-1,-1,-1],"loss_changes":[2.443129E0,2.1548557E0,0E0,1.581349E0,0E0,0E0,0E0],"parents":[2147483647,0,0,1,1,3,3],"right_children":[2,4,-1,6,-1,-1,-1],"split_conditions":[6.5412917E-3,-1.5625E-3,-1.3525933E-2,1.1398176E-3,1.5354588E-2,-1.0248299E-2,7.662644E-3],"split_indices":[48,48,0,40,0,0,0],"split_type":[0,0,0,0,0,0,0],"sum_hessian":[6.4379395E1,4.8325996E1,1.6053402E1,3.1263288E1,1.7062706E1,1.9172318E1,1.2090971E1],"tree_param":{"num_deleted":"0","num_feature":"66","num_nodes":"7","size_leaf_vector":"1"}},{"base_weights":[8.063233E-3,1.2588477E-1,-1.0784499E-2,2.2652619E-1,-7.2177844E-3,-1.1131557E-3,3.4252638E-1,3.3717079E-3,2.2531865E-2],"categories":[],"categories_nodes":[],"categories_segments":[],"categories_sizes":[],"default_left":[0,0,0,0,0,0,0,0,0],"id":29,"left_children":[1,3,-1,5,-1,-1,7,-1,-1],"loss_changes":[2.2825751E0,1.8578093E0,0E0,1.3721666E0,0E0,0E0,6.250646E-1,0E0,0E0],"parents":[2147483647,0,0,1,1,3,3,6,6],"right_children":[2,4,-1,6,-1,-1,8,-1,-1],"split_conditions":[4.604758E-3,6.5412917E-3,-1.0784499E-2,-3.9130435E-3,-7.2177844E-3,-1.1131557E-3,-5.8749476E-3,3.3717079E-3,2.2531865E-2],"split_indices":[57,59,0,37,0,0,45,0,0],"split_type":[0,0,0,0,0,0,0,0,0],"sum_hessian":[6.628336E1,4.6285038E1,1.9998325E1,3.4903923E1,1.1381115E1,1.3668794E1,2.123513E1,1.057194E1,1.066319E1],"tree_param":{"num_deleted":"0","num_feature":"66","num_nodes":"9","size_leaf_vector":"1"}},{"base_weights":[-4.7978344E-3,-2.0908317E-1,1.5580805E-1,-6.374087E-4,-1.4380722E-2,2.6977125E-1,-6.697245E-3,2.2414811E-2,-6.6180236E-4],"categories":[],"categories_nodes":[],"categories_segments":[],"categories_sizes":[],"default_left":[0,0,0,0,0,0,0,0,0],"id":30,"left_children":[1,3,5,-1,-1,7,-1,-1,-1],"loss_changes":[2.9360905E0,5.690963E-1,2.021384E0,0E0,0E0,2.0499127E0,0E0,0E0,0E0],"parents":[2147483647,0,0,1,1,2,2,5,5],"right_children":[2,4,6,-1,-1,8,-1,-1,-1],"split_conditions":[-2.1987688E-3,-5.8749476E-3,6.0072085E-3,-6.374087E-4,-1.4380722E-2,2.33489E-3,-6.697245E-3,2.2414811E-2,-6.6180236E-4],"split_indices":[34,37,52,0,0,58,0,0,0],"split_type":[0,0,0,0,0,0,0,0,0],"sum_hessian":[6.956012E1,2.9288158E1,4.027196E1,1.16887045E1,1.7599455E1,2.9398718E1,1.0873244E1,1.4445712E1,1.4953006E1],"tree_param":{"num_deleted":"0","num_feature":"66","num_nodes":"9","size_leaf_vector":"1"}},{"base_weights":[3.013276E-3,2.6196095E-1,-1.6888489E-1,2.3677891E-2,-4.9048145E-3,4.243621E-3,-2.4762255E-1,-1.7162686E-2,-1.2542176E-3],"categories":[],"categories_nodes":[],"categories_segments":[],"categories_sizes":[],"default_left":[0,0,0,0,0,0,0,0,0],"id":31,"left_children":[1,3,5,-1,-1,-1,7,-1,-1],"loss_changes":[3.9290469E0,3.1441495E0,1.2722665E0,0E0,0E0,0E0,8.316026E-1,0E0,0E0],"parents":[2147483647,0,0,1,1,2,2,6,6],"right_children":[2,4,6,-1,-1,-1,8,-1,-1],"split_conditions":[-5.577689E-3,-3.0627872E-3,-1.0138249E-2,2.3677891E-2,-4.9048145E-3,4.243621E-3,2.9143898E-3,-1.7162686E-2,-1.2542176E-3],"split_indices":[48,46,33,0,0,0,46,0,0],"split_type":[0,0,0,0,0,0,0,0,0],"sum_hessian":[6.8329094E1,2.5171455E1,4.3157635E1,1.3868807E1,1.13026495E1,1.0035592E1,3.3122044E1,1.937259E1,1.37494545E1],"tree_param":{"num_deleted":"0","num_feature":"66","num_nodes":"9","size_leaf_vector":"1"}},{"base_weights":[-1.0444958E-1,1.6577165E-1,-2.4549992E-1,1.544338E-2,-3.759173E-3,-1.931896E-2,-1.1293003E-2,9.3664415E-3,-1.074367E-2],"categories":[],"categories_nodes":[],"categories_segments":[],"categories_sizes":[],"default_left":[0,0,0,0,0,0,0,0,0],"id":32,"left_children":[1,3,5,-1,-1,-1,7,-1,-1],"loss_changes":[3.4284348E0,1.3754544E0,1.8079066E0,0E0,0E0,0E0,1.6712964E0,0E0,0E0],"parents":[2147483647,0,0,1,1,2,2,6,6],"right_children":[2,4,6,-1,-1,-1,8,-1,-1],"split_conditions":[-5.13573E-3,3E0,-7.3394494E-4,1.544338E-2,-3.759173E-3,-1.931896E-2,-2.1873862E-3,9.3664415E-3,-1.074367E-2],"split_indices":[43,27,48,0,0,0,51,0,0],"split_type":[0,0,0,0,0,0,0,0,0],"sum_hessian":[6.927277E1,2.3156805E1,4.6115967E1,1.2760348E1,1.0396458E1,2.4738195E1,2.137777E1,1.1224728E1,1.0153042E1],"tree_param":{"num_deleted":"0","num_feature":"66","num_nodes":"9","size_leaf_vector":"1"}},{"base_weights":[-2.1360407E-3,-1.158039E-2,1.3796659E-1,3.0537117E-1,-6.2956065E-3,-1.3721226E-3,2.2457376E-2],"categories":[],"categories_nodes":[],"categories_segments":[],"categories_sizes":[],"default_left":[0,0,0,0,0,0,0],"id":33,"left_children":[1,-1,3,5,-1,-1,-1],"loss_changes":[2.8587558E0,0E0,2.8276567E0,1.8821919E0,0E0,0E0,0E0],"parents":[2147483647,0,0,2,2,3,3],"right_children":[2,-1,4,6,-1,-1,-1],"split_conditions":[-4.789272E-3,-1.158039E-2,3E0,-5.033557E-3,-6.2956065E-3,-1.3721226E-3,2.2457376E-2],"split_indices":[33,0,29,34,0,0,0],"split_type":[0,0,0,0,0,0,0],"sum_hessian":[6.898121E1,2.3674253E1,4.5306957E1,2.6758785E1,1.8548172E1,1.0513479E1,1.6245306E1],"tree_param":{"num_deleted":"0","num_feature":"66","num_nodes":"7","size_leaf_vector":"1"}},{"base_weights":[-1.1184598E-2,-1.0283465E-1,1.4986611E-2,-2.501057E-1,1.3114287E-1,-1.4288159E-3,-1.5391399E-2,1.50881335E-2,-6.186196E-3],"categories":[],"categories_nodes":[],"categories_segments":[],"categories_sizes":[],"default_left":[0,0,0,0,0,0,0,0,0],"id":34,"left_children":[1,3,-1,5,7,-1,-1,-1,-1],"loss_changes":[2.595108E0,2.7203717E0,0E0,5.0087214E-1,1.8248687E0,0E0,0E0,0E0,0E0],"parents":[2147483647,0,0,1,1,3,3,4,4],"right_children":[2,4,-1,6,8,-1,-1,-1,-1],"split_conditions":[1.0928961E-2,1.4919806E-3,1.4986611E-2,-7.575758E-3,-1.1459129E-3,-1.4288159E-3,-1.5391399E-2,1.50881335E-2,-6.186196E-3],"split_indices":[43,52,0,30,57,0,0,0,0],"split_type":[0,0,0,0,0,0,0,0,0],"sum_hessian":[7.025394E1,5.9428516E1,1.082542E1,3.604907E1,2.337945E1,1.0541821E1,2.5507248E1,1.2902138E1,1.0477312E1],"tree_param":{"num_deleted":"0","num_feature":"66","num_nodes":"9","size_leaf_vector":"1"}},{"base_weights":[-1.3969223E-1,-2.580266E-1,9.655978E-2,3.108829E-3,-1.7765714E-2,1.40358405E-2,-5.7625207E-3],"categories":[],"categories_nodes":[],"categories_segments":[],"categories_sizes":[],"default_left":[0,0,0,0,0,0,0],"id":35,"left_children":[1,3,5,-1,-1,-1,-1],"loss_changes":[2.3415737E0,1.8592143E0,1.5816578E0,0E0,0E0,0E0,0E0],"parents":[2147483647,0,0,1,1,2,2],"right_children":[2,4,6,-1,-1,-1,-1],"split_conditions":[4.2503863E-3,-9.84589E-3,-1.5625E-3,3.108829E-3,-1.7765714E-2,1.40358405E-2,-5.7625207E-3],"split_indices":[47,51,56,0,0,0,0],"split_type":[0,0,0,0,0,0,0],"sum_hessian":[6.484507E1,4.2590557E1,2.2254513E1,1.0765861E1,3.18247E1,1.0164139E1,1.2090373E1],"tree_param":{"num_deleted":"0","num_feature":"66","num_nodes":"7","size_leaf_vector":"1"}},{"base_weights":[-4.7815815E-2,1.8843123E-1,-2.2518127E-1,-1.0814771E-2,2.1739492E-2,2.0036714E-4,-1.5508865E-2],"categories":[],"categories_nodes":[],"categories_segments":[],"categories_sizes":[],"default_left":[0,0,0,0,0,0,0],"id":36,"left_children":[1,3,5,-1,-1,-1,-1],"loss_changes":[3.9967654E0,5.1285896E0,1.049803E0,0E0,0E0,0E0,0E0],"parents":[2147483647,0,0,1,1,2,2],"right_children":[2,4,6,-1,-1,-1,-1],"split_conditions":[2E0,-4.973475E-3,-3.215434E-3,-1.0814771E-2,2.1739492E-2,2.0036714E-4,-1.5508865E-2],"split_indices":[8,58,59,0,0,0,0],"split_type":[0,0,0,0,0,0,0],"sum_hessian":[7.525722E1,3.2004284E1,4.325293E1,1.25715685E1,1.9432716E1,1.4278911E1,2.897402E1],"tree_param":{"num_deleted":"0","num_feature":"66","num_nodes":"7","size_leaf_vector":"1"}},{"base_weights":[-9.639031E-3,-1.6104956E-1,1.4903283E-1,4.0543205E-3,-2.5314137E-1,-5.9941863E-3,1.5849305E-2,-1.5955415E-2,-3.3021716E-3],"categories":[],"categories_nodes":[],"categories_segments":[],"categories_sizes":[],"default_left":[0,0,0,0,0,0,0,0,0],"id":37,"left_children":[1,3,5,-1,7,-1,-1,-1,-1],"loss_changes":[2.1643312E0,1.226388E0,2.3810585E0,0E0,2.2865224E-1,0E0,0E0,0E0,0E0],"parents":[2147483647,0,0,1,1,2,2,4,4],"right_children":[2,4,6,-1,8,-1,-1,-1,-1],"split_conditions":[-7.64526E-4,-5.033557E-3,-4.239084E-3,4.0543205E-3,3.7864444E-4,-5.9941863E-3,1.5849305E-2,-1.5955415E-2,-3.3021716E-3],"split_indices":[35,37,51,0,32,0,0,0,0],"split_type":[0,0,0,0,0,0,0,0,0],"sum_hessian":[7.009771E1,3.579293E1,3.4304783E1,1.0191523E1,2.5601408E1,1.4288684E1,2.0016096E1,1.3711378E1,1.189003E1],"tree_param":{"num_deleted":"0","num_feature":"66","num_nodes":"9","size_leaf_vector":"1"}},{"base_weights":[5.2432068E-2,-1.5025479E-1,2.7404338E-1,-2.6467532E-1,5.467878E-3,2.0858057E-2,-2.8867256E-3,-1.6463524E-2,-3.747748E-3],"categories":[],"categories_nodes":[],"categories_segments":[],"categories_sizes":[],"default_left":[0,0,0,0,0,0,0,0,0],"id":38,"left_children":[1,3,5,7,-1,-1,-1,-1,-1],"loss_changes":[4.068594E0,1.7443986E0,2.2556388E0,2.056551E-1,0E0,0E0,0E0,0E0,0E0],"parents":[2147483647,0,0,1,1,2,2,3,3],"right_children":[2,4,6,8,-1,-1,-1,-1,-1],"split_conditions":[-3.8153375E-4,3.4000755E-3,1.988731E-3,2.8653296E-3,5.467878E-3,2.0858057E-2,-2.8867256E-3,-1.6463524E-2,-3.747748E-3],"split_indices":[35,40,63,31,0,0,0,0,0],"split_type":[0,0,0,0,0,0,0,0,0],"sum_hessian":[7.14118E1,3.89802E1,3.24316E1,2.6920391E1,1.2059812E1,2.0859856E1,1.1571742E1,1.4595439E1,1.2324953E1],"tree_param":{"num_deleted":"0","num_feature":"66","num_nodes":"9","size_leaf_vector":"1"}},{"base_weights":[2.7183475E-2,-1.30549595E-2,1.7743577E-1,3.1633788E-1,-1.1197243E-2,4.455865E-1,-3.5523593E-3,2.7433101E-2,4.3006698E-3],"categories":[],"categories_nodes":[],"categories_segments":[],"categories_sizes":[],"default_left":[0,0,0,0,0,0,0,0,0],"id":39,"left_children":[1,-1,3,5,-1,7,-1,-1,-1],"loss_changes":[3.8681402E0,0E0,3.9213376E0,2.6676826E0,0E0,8.840327E-1,0E0,0E0,0E0],"parents":[2147483647,0,0,2,2,3,3,5,5],"right_children":[2,-1,4,6,-1,8,-1,-1,-1],"split_conditions":[-7.4211503E-3,-1.30549595E-2,7.328692E-3,6.0072085E-3,-1.1197243E-2,3.1596331E-3,-3.5523593E-3,2.7433101E-2,4.3006698E-3],"split_indices":[47,0,57,59,0,63,0,0,0],"split_type":[0,0,0,0,0,0,0,0,0],"sum_hessian":[6.860663E1,2.0978565E1,4.762806E1,3.6957333E1,1.0670728E1,2.6584997E1,1.0372336E1,1.6574915E1,1.0010082E1],"tree_param":{"num_deleted":"0","num_feature":"66","num_nodes":"9","size_leaf_vector":"1"}},{"base_weights":[-2.5775969E-2,-2.0572805E-1,1.7220765E-2,6.494046E-3,-3.237094E-1,-2.1302983E-2,-3.5946674E-3],"categories":[],"categories_nodes":[],"categories_segments":[],"categories_sizes":[],"default_left":[0,0,0,0,0,0,0],"id":40,"left_children":[1,3,-1,-1,5,-1,-1],"loss_changes":[6.090508E0,2.8208761E0,0E0,0E0,9.2356586E-1,0E0,0E0],"parents":[2147483647,0,0,1,1,4,4],"right_children":[2,4,-1,-1,6,-1,-1],"split_conditions":[4.2775664E-3,-8.913413E-3,1.7220765E-2,6.494046E-3,3E0,-2.1302983E-2,-3.5946674E-3],"split_indices":[59,50,0,0,15,0,0],"split_type":[0,0,0,0,0,0,0],"sum_hessian":[7.07898E1,5.0623894E1,2.0165909E1,1.2905212E1,3.771868E1,2.1898563E1,1.5820116E1],"tree_param":{"num_deleted":"0","num_feature":"66","num_nodes":"7","size_leaf_vector":"1"}},{"base_weights":[9.70408E-2,2.60135E-1,-1.745582E-1,3.8172057E-1,-5.13467E-3,2.0464172E-3,-1.5603485E-2,-1.6644954E-4,2.6088193E-2],"categories":[],"categories_nodes":[],"categories_segments":[],"categories_sizes":[],"default_left":[0,0,0,0,0,0,0,0,0],"id":41,"left_children":[1,3,5,7,-1,-1,-1,-1,-1],"loss_changes":[4.0232606E0,2.7900553E0,1.2008617E0,2.3272138E0,0E0,0E0,0E0,0E0,0E0],"parents":[2147483647,0,0,1,1,2,2,3,3],"right_children":[2,4,6,8,-1,-1,-1,-1,-1],"split_conditions":[3.2739178E-3,5.294507E-3,-3.6697247E-4,-5.4012346E-3,-5.13467E-3,2.0464172E-3,-1.5603485E-2,-1.6644954E-4,2.6088193E-2],"split_indices":[52,33,42,43,0,0,0,0,0],"split_type":[0,0,0,0,0,0,0,0,0],"sum_hessian":[7.057513E1,4.435951E1,2.6215622E1,3.2835484E1,1.1524025E1,1.2948458E1,1.3267164E1,1.1360908E1,2.1474573E1],"tree_param":{"num_deleted":"0","num_feature":"66","num_nodes":"9","size_leaf_vector":"1"}},{"base_weights":[-1.2704654E-1,1.038463E-1,-2.550508E-1,-4.419579E-3,1.2439006E-2,-1.9535078E-2,-5.2401472E-2,-9.591198E-3,5.233127E-3],"categories":[],"categories_nodes":[],"categories_segments":[],"categories_sizes":[],"default_left":[0,0,0,0,0,0,0,0,0],"id":42,"left_children":[1,3,5,-1,-1,-1,7,-1,-1],"loss_changes":[2.6518931E0,1.2204776E0,1.3031464E0,0E0,0E0,0E0,9.3531686E-1,0E0,0E0],"parents":[2147483647,0,0,1,1,2,2,6,6],"right_children":[2,4,6,-1,-1,-1,8,-1,-1],"split_conditions":[-4.6242774E-3,-9.218338E-4,-7.64526E-4,-4.419579E-3,1.2439006E-2,-1.9535078E-2,-1.6960652E-3,-9.591198E-3,5.233127E-3],"split_indices":[41,65,57,0,0,0,36,0,0],"split_type":[0,0,0,0,0,0,0,0,0],"sum_hessian":[7.0765045E1,2.5912182E1,4.485286E1,1.2815352E1,1.3096829E1,2.130913E1,2.354373E1,1.1299919E1,1.2243811E1],"tree_param":{"num_deleted":"0","num_feature":"66","num_nodes":"9","size_leaf_vector":"1"}},{"base_weights":[9.5818445E-2,-1.3843891E-2,1.8464799E-1,-4.8443563E-2,3.6115992E-1,7.242129E-3,-1.0474726E-2,2.0559864E-4,2.929383E-2],"categories":[],"categories_nodes":[],"categories_segments":[],"categories_sizes":[],"default_left":[0,0,0,0,0,0,0,0,0],"id":43,"left_children":[1,-1,3,5,7,-1,-1,-1,-1],"loss_changes":[3.4081879E0,0E0,3.3290637E0,1.6062814E0,3.5710602E0,0E0,0E0,0E0,0E0],"parents":[2147483647,0,0,2,2,3,3,4,4],"right_children":[2,-1,4,6,8,-1,-1,-1,-1],"split_conditions":[-1.3245033E-2,-1.3843891E-2,-2.3988779E-3,-6.610534E-3,1.174628E-3,7.242129E-3,-1.0474726E-2,2.0559864E-4,2.929383E-2],"split_indices":[36,0,63,64,38,0,0,0,0],"split_type":[0,0,0,0,0,0,0,0,0],"sum_hessian":[7.7503784E1,1.0842607E1,6.666118E1,3.1853188E1,3.4807987E1,1.4935127E1,1.691806E1,1.7378542E1,1.7429447E1],"tree_param":{"num_deleted":"0","num_feature":"66","num_nodes":"9","size_leaf_vector":"1"}},{"base_weights":[8.514381E-2,1.6458422E-2,-3.604246E-2,1.1486406E-2,-1.7995967E-1,-1.3523621E-2,9.2061135E-5],"categories":[],"categories_nodes":[],"categories_segments":[],"categories_sizes":[],"default_left":[0,0,0,0,0,0,0],"id":44,"left_children":[1,-1,3,-1,5,-1,-1],"loss_changes":[2.294367E0,0E0,2.6384587E0,0E0,7.182318E-1,0E0,0E0],"parents":[2147483647,0,0,2,2,4,4],"right_children":[2,-1,4,-1,6,-1,-1],"split_conditions":[-8.917198E-3,1.6458422E-2,-7.586207E-3,1.1486406E-2,3.6616623E-4,-1.3523621E-2,9.2061135E-5],"split_indices":[56,0,40,0,46,0,0],"split_type":[0,0,0,0,0,0,0],"sum_hessian":[6.357279E1,1.5400217E1,4.8172573E1,1.4827761E1,3.334481E1,1.9005295E1,1.4339517E1],"tree_param":{"num_deleted":"0","num_feature":"66","num_nodes":"7","size_leaf_vector":"1"}},{"base_weights":[4.204495E-2,2.005747E-1,-1.3280083E-1,1.831422E-2,-2.5794806E-3,-1.2733308E-2,6.751901E-3],"categories":[],"categories_nodes":[],"categories_segments":[],"categories_sizes":[],"default_left":[0,0,0,0,0,0,0],"id":45,"left_children":[1,3,5,-1,-1,-1,-1],"loss_changes":[2.444063E0,2.0772285E0,1.7597215E0,0E0,0E0,0E0,0E0],"parents":[2147483647,0,0,1,1,2,2],"right_children":[2,4,6,-1,-1,-1,-1],"split_conditions":[-8.7489065E-4,-7.410152E-4,3.7144036E-3,1.831422E-2,-2.5794806E-3,-1.2733308E-2,6.751901E-3],"split_indices":[30,41,58,0,0,0,0],"split_type":[0,0,0,0,0,0,0],"sum_hessian":[6.8565475E1,3.518883E1,3.3376644E1,1.8503584E1,1.6685247E1,2.3277372E1,1.0099273E1],"tree_param":{"num_deleted":"0","num_feature":"66","num_nodes":"7","size_leaf_vector":"1"}},{"base_weights":[7.707198E-2,2.28355E-1,-1.5670645E-1,4.1101637E-1,-3.6245366E-3,-1.5646856E-2,2.2981658E-3,1.5217576E-3,2.9124293E-2],"categories":[],"categories_nodes":[],"categories_segments":[],"categories_sizes":[],"default_left":[0,0,0,0,0,0,0,0,0],"id":46,"left_children":[1,3,5,7,-1,-1,-1,-1,-1],"loss_changes":[3.3342772E0,3.3293862E0,1.3785374E0,2.160482E0,0E0,0E0,0E0,0E0,0E0],"parents":[2147483647,0,0,1,1,2,2,3,3],"right_children":[2,4,6,8,-1,-1,-1,-1,-1],"split_conditions":[2.5906735E-3,3.7864444E-4,9.454101E-4,-3.94633E-3,-3.6245366E-3,-1.5646856E-2,2.2981658E-3,1.5217576E-3,2.9124293E-2],"split_indices":[40,46,64,53,0,0,0,0,0],"split_type":[0,0,0,0,0,0,0,0,0],"sum_hessian":[7.415909E1,4.516429E1,2.8994793E1,2.582336E1,1.9340933E1,1.3300889E1,1.5693903E1,1.1678209E1,1.4145151E1],"tree_param":{"num_deleted":"0","num_feature":"66","num_nodes":"9","size_leaf_vector":"1"}},{"base_weights":[1.1872754E-3,-1.8069114E-1,2.0183784E-1,5.513596E-3,-1.50889745E-2,2.1619914E-2,-6.454542E-3],"categories":[],"categories_nodes":[],"categories_segments":[],"categories_sizes":[],"default_left":[0,0,0,0,0,0,0],"id":47,"left_children":[1,3,5,-1,-1,-1,-1],"loss_changes":[3.1797533E0,1.9442221E0,3.7169333E0,0E0,0E0,0E0,0E0],"parents":[2147483647,0,0,1,1,2,2],"right_children":[2,4,6,-1,-1,-1,-1],"split_conditions":[-7.889546E-4,-9.310987E-3,-1.1820331E-3,5.513596E-3,-1.50889745E-2,2.1619914E-2,-6.454542E-3],"split_indices":[48,39,44,0,0,0,0],"split_type":[0,0,0,0,0,0,0],"sum_hessian":[6.713733E1,3.573778E1,3.139955E1,1.0764658E1,2.4973124E1,1.6699015E1,1.4700535E1],"tree_param":{"num_deleted":"0","num_feature":"66","num_nodes":"7","size_leaf_vector":"1"}},{"base_weights":[1.130978E-1,3.1299117E-1,-7.623814E-2,2.2928827E-2,-1.9330092E-3,-1.8876512E-1,6.4282715E-3,-1.2676991E-2,-7.0332317E-4],"categories":[],"categories_nodes":[],"categories_segments":[],"categories_sizes":[],"default_left":[0,0,0,0,0,0,0,0,0],"id":48,"left_children":[1,3,5,-1,-1,7,-1,-1,-1],"loss_changes":[3.1616983E0,2.2009492E0,1.3421112E0,0E0,0E0,3.5859346E-1,0E0,0E0,0E0],"parents":[2147483647,0,0,1,1,2,2,5,5],"right_children":[2,4,6,-1,-1,8,-1,-1,-1],"split_conditions":[2E0,3.3860046E-3,1.1214648E-3,2.2928827E-2,-1.9330092E-3,3.202847E-3,6.4282715E-3,-1.2676991E-2,-7.0332317E-4],"split_indices":[27,49,64,0,0,43,0,0,0],"split_type":[0,0,0,0,0,0,0,0,0],"sum_hessian":[6.723411E1,2.9528301E1,3.7705807E1,1.8732357E1,1.0795944E1,2.4840559E1,1.2865248E1,1.4829213E1,1.0011346E1],"tree_param":{"num_deleted":"0","num_feature":"66","num_nodes":"9","size_leaf_vector":"1"}},{"base_weights":[-1.4957961E-2,1.6290891E-1,-1.6260497E-1,1.4779209E-2,-4.1718404E-3,-1.6584253E-2,1.8747638E-3],"categories":[],"categories_nodes":[],"categories_segments":[],"categories_sizes":[],"default_left":[0,0,0,0,0,0,0],"id":49,"left_children":[1,3,5,-1,-1,-1,-1],"loss_changes":[2.125193E0,1.4600451E0,1.6032559E0,0E0,0E0,0E0,0E0],"parents":[2147483647,0,0,1,1,2,2],"right_children":[2,4,6,-1,-1,-1,-1],"split_conditions":[-2.1873862E-3,3E0,3.8350911E-3,1.4779209E-2,-4.1718404E-3,-1.6584253E-2,1.8747638E-3],"split_indices":[36,3,36,0,0,0,0],"split_type":[0,0,0,0,0,0,0],"sum_hessian":[6.083731E1,2.7125809E1,3.3711502E1,1.6331398E1,1.0794411E1,1.4707804E1,1.9003696E1],"tree_param":{"num_deleted":"0","num_feature":"66","num_nodes":"7","size_leaf_vector":"1"}},{"base_weights":[-7.132787E-2,1.6659902E-1,-2.0158048E-1,-5.4999725E-3,1.8064946E-2,3.7306144E-3,-1.6352823E-2],"categories":[],"categories_nodes":[],"categories_segments":[],"categories_sizes":[],"default_left":[0,0,0,0,0,0,0],"id":50,"left_children":[1,3,5,-1,-1,-1,-1],"loss_changes":[2.8804982E0,2.2566633E0,2.2397375E0,0E0,0E0,0E0,0E0],"parents":[2147483647,0,0,1,1,2,2],"right_children":[2,4,6,-1,-1,-1,-1],"split_conditions":[-7.1267816E-3,-2.9648454E-3,-5.288853E-3,-5.4999725E-3,1.8064946E-2,3.7306144E-3,-1.6352823E-2],"split_indices":[48,52,37,0,0,0,0],"split_type":[0,0,0,0,0,0,0],"sum_hessian":[7.211095E1,2.4523838E1,4.758711E1,1.192831E1,1.2595528E1,1.613189E1,3.145522E1],"tree_param":{"num_deleted":"0","num_feature":"66","num_nodes":"7","size_leaf_vector":"1"}},{"base_weights":[-5.5188388E-2,-1.6355537E-1,1.4141509E-2,6.6085416E-3,-2.3823991E-1,-3.355609E-1,3.828637E-3,-3.7745133E-3,-2.0387901E-2],"categories":[],"categories_nodes":[],"categories_segments":[],"categories_sizes":[],"default_left":[0,0,0,0,0,0,0,0,0],"id":51,"left_children":[1,3,-1,-1,5,7,-1,-1,-1],"loss_changes":[3.4323795E0,1.81076E0,0E0,0E0,2.022957E0,5.537901E-1,0E0,0E0,0E0],"parents":[2147483647,0,0,1,1,4,4,5,5],"right_children":[2,4,-1,-1,6,8,-1,-1,-1],"split_conditions":[7.7092513E-3,-9.857613E-3,1.4141509E-2,6.6085416E-3,5.502568E-3,-5.13573E-3,3.828637E-3,-3.7745133E-3,-2.0387901E-2],"split_indices":[59,33,0,0,55,52,0,0,0],"split_type":[0,0,0,0,0,0,0,0,0],"sum_hessian":[7.107539E1,5.7729095E1,1.3346296E1,1.0087742E1,4.7641354E1,3.5887917E1,1.1753434E1,1.2242773E1,2.3645144E1],"tree_param":{"num_deleted":"0","num_feature":"66","num_nodes":"9","size_leaf_vector":"1"}},{"base_weights":[-3.069885E-2,2.3064512E-1,-2.2073412E-1,-9.649156E-3,2.4429496E-2,-1.6730499E-2,1.5192879E-3],"categories":[],"categories_nodes":[],"categories_segments":[],"categories_sizes":[],"default_left":[0,0,0,0,0,0,0],"id":52,"left_children":[1,3,5,-1,-1,-1,-1],"loss_changes":[4.380524E0,5.0634003E0,1.5384388E0,0E0,0E0,0E0,0E0],"parents":[2147483647,0,0,1,1,2,2],"right_children":[2,4,6,-1,-1,-1,-1],"split_conditions":[2E0,2E0,6.972477E-3,-9.649156E-3,2.4429496E-2,-1.6730499E-2,1.5192879E-3],"split_indices":[23,21,53,0,0,0,0],"split_type":[0,0,0,0,0,0,0],"sum_hessian":[6.795117E1,2.7708452E1,4.0242718E1,1.143952E1,1.6268932E1,2.5399876E1,1.4842841E1],"tree_param":{"num_deleted":"0","num_feature":"66","num_nodes":"7","size_leaf_vector":"1"}},{"base_weights":[3.8750857E-2,-1.620703E-2,1.7509228E-1,-9.020916E-3,2.8623337E-1,-2.7666767E-3,4.000278E-1,9.2153606E-4,2.6753599E-2],"categories":[],"categories_nodes":[],"categories_segments":[],"categories_sizes":[],"default_left":[0,0,0,0,0,0,0,0,0],"id":53,"left_children":[1,-1,3,-1,5,-1,7,-1,-1],"loss_changes":[4.2947283E0,0E0,2.9365585E0,0E0,2.1853428E0,0E0,1.9171891E0,0E0,0E0],"parents":[2147483647,0,0,2,2,4,4,6,6],"right_children":[2,-1,4,-1,6,-1,8,-1,-1],"split_conditions":[-9.190372E-3,-1.620703E-2,-1.0714286E-2,-9.020916E-3,-7.6614376E-3,-2.7666767E-3,-4.2863265E-3,9.2153606E-4,2.6753599E-2],"split_indices":[54,0,39,0,30,0,33,0,0],"split_type":[0,0,0,0,0,0,0,0,0],"sum_hessian":[6.533142E1,1.4080377E1,5.1251045E1,1.0721751E1,4.0529293E1,1.1412076E1,2.9117218E1,1.0581537E1,1.853568E1],"tree_param":{"num_deleted":"0","num_feature":"66","num_nodes":"9","size_leaf_vector":"1"}},{"base_weights":[6.0368605E-2,2.0585665E-1,-1.7181394E-1,-5.5670007E-3,3.7008065E-1,-1.4591433E-2,2.5495046E-3,2.7975053E-2,1.0174569E-4],"categories":[],"categories_nodes":[],"categories_segments":[],"categories_sizes":[],"default_left":[0,0,0,0,0,0,0,0,0],"id":54,"left_children":[1,3,5,-1,7,-1,-1,-1,-1],"loss_changes":[3.0284367E0,3.184783E0,1.1101922E0,0E0,2.594829E0,0E0,0E0,0E0,0E0],"parents":[2147483647,0,0,1,1,2,2,4,4],"right_children":[2,4,6,-1,8,-1,-1,-1,-1],"split_conditions":[2.33489E-3,-6.500956E-3,2.0053475E-3,-5.5670007E-3,-2.1123786E-3,-1.4591433E-2,2.5495046E-3,2.7975053E-2,1.0174569E-4],"split_indices":[32,46,59,0,30,0,0,0,0],"split_type":[0,0,0,0,0,0,0,0,0],"sum_hessian":[6.918188E1,4.3228367E1,2.5953508E1,1.5844721E1,2.7383646E1,1.4854203E1,1.1099305E1,1.4644623E1,1.2739022E1],"tree_param":{"num_deleted":"0","num_feature":"66","num_nodes":"9","size_leaf_vector":"1"}},{"base_weights":[5.004661E-3,1.750205E-2,-1.1427403E-1,-2.3853542E-1,1.012566E-2,1.0472823E-5,-1.6012054E-2],"categories":[],"categories_nodes":[],"categories_segments":[],"categories_sizes":[],"default_left":[0,0,0,0,0,0,0],"id":55,"left_children":[1,-1,3,5,-1,-1,-1],"loss_changes":[3.4977176E0,0E0,2.9815853E0,9.7953415E-1,0E0,0E0,0E0],"parents":[2147483647,0,0,2,2,3,3],"right_children":[2,-1,4,6,-1,-1,-1],"split_conditions":[-1.09847E-2,1.750205E-2,6.35324E-3,-6.480356E-3,1.012566E-2,1.0472823E-5,-1.6012054E-2],"split_indices":[50,0,31,37,0,0,0],"split_type":[0,0,0,0,0,0,0],"sum_hessian":[6.52685E1,1.1796987E1,5.347151E1,4.0180626E1,1.3290883E1,1.2788077E1,2.739255E1],"tree_param":{"num_deleted":"0","num_feature":"66","num_nodes":"7","size_leaf_vector":"1"}},{"base_weights":[-2.8111883E-2,-2.1504734E-1,1.5341406E-1,-2.9634738E-1,1.4931884E-3,-7.89458E-3,1.9998688E-2,-1.8282069E-2,-3.2631718E-3],"categories":[],"categories_nodes":[],"categories_segments":[],"categories_sizes":[],"default_left":[0,0,0,0,0,0,0,0,0],"id":56,"left_children":[1,3,5,7,-1,-1,-1,-1,-1],"loss_changes":[3.122706E0,9.7873974E-1,4.284417E0,3.1353426E-1,0E0,0E0,0E0,0E0,0E0],"parents":[2147483647,0,0,1,1,2,2,3,3],"right_children":[2,4,6,8,-1,-1,-1,-1,-1],"split_conditions":[-1.8005042E-3,5.8061634E-3,-1.1459129E-3,1.0816183E-4,1.4931884E-3,-7.89458E-3,1.9998688E-2,-1.8282069E-2,-3.2631718E-3],"split_indices":[43,36,32,65,0,0,0,0,0],"split_type":[0,0,0,0,0,0,0,0,0],"sum_hessian":[7.230162E1,3.4710297E1,3.759132E1,2.448284E1,1.0227458E1,1.820365E1,1.938767E1,1.4355305E1,1.0127534E1],"tree_param":{"num_deleted":"0","num_feature":"66","num_nodes":"9","size_leaf_vector":"1"}},{"base_weights":[-8.326966E-2,9.383046E-3,-1.5888385E-1,3.2257007E-3,-2.4946964E-1,-3.0442375E-1,-5.545321E-4,-1.7820518E-2,-3.9209467E-3],"categories":[],"categories_nodes":[],"categories_segments":[],"categories_sizes":[],"default_left":[0,0,0,0,0,0,0,0,0],"id":57,"left_children":[1,-1,3,-1,5,7,-1,-1,-1],"loss_changes":[1.9759223E0,0E0,1.5662335E0,0E0,6.4039636E-1,2.0743632E-1,0E0,0E0,0E0],"parents":[2147483647,0,0,2,2,4,4,5,5],"right_children":[2,-1,4,-1,6,8,-1,-1,-1],"split_conditions":[-1.056052E-2,9.383046E-3,-6.6864784E-3,3.2257007E-3,1.18811885E-2,9.3457947E-4,-5.545321E-4,-1.7820518E-2,-3.9209467E-3],"split_indices":[36,0,50,0,50,48,0,0,0],"split_type":[0,0,0,0,0,0,0,0,0],"sum_hessian":[7.1897064E1,1.2454296E1,5.944277E1,1.7979877E1,4.146289E1,3.1443554E1,1.0019339E1,2.0872368E1,1.0571185E1],"tree_param":{"num_deleted":"0","num_feature":"66","num_nodes":"9","size_leaf_vector":"1"}},{"base_weights":[2.9019874E-2,1.5326262E-1,-1.4343219E-2,-4.977551E-2,1.9907048E-2,-2.0126534E-1,1.0255644E-2,1.6761528E-3,-1.5814772E-2],"categories":[],"categories_nodes":[],"categories_segments":[],"categories_sizes":[],"default_left":[0,0,0,0,0,0,0,0,0],"id":58,"left_children":[1,3,-1,5,-1,7,-1,-1,-1],"loss_changes":[3.7350376E0,3.5185332E0,0E0,2.1657968E0,0E0,1.0113912E0,0E0,0E0,0E0],"parents":[2147483647,0,0,1,1,3,3,5,5],"right_children":[2,4,-1,6,-1,8,-1,-1,-1],"split_conditions":[3.0138057E-3,3E0,-1.4343219E-2,2.946128E-3,1.9907048E-2,-3.338102E-3,1.0255644E-2,1.6761528E-3,-1.5814772E-2],"split_indices":[65,11,0,38,0,36,0,0,0],"split_type":[0,0,0,0,0,0,0,0,0],"sum_hessian":[7.396664E1,5.6781597E1,1.7185043E1,3.539859E1,2.1383005E1,2.3522226E1,1.1876365E1,1.0064745E1,1.3457482E1],"tree_param":{"num_deleted":"0","num_feature":"66","num_nodes":"9","size_leaf_vector":"1"}},{"base_weights":[5.5993297E-3,1.4703844E-1,-1.45683205E-2,-7.5584087E-3,3.152361E-1,2.2585725E-2,-1.6634193E-3],"categories":[],"categories_nodes":[],"categories_segments":[],"categories_sizes":[],"default_left":[0,0,0,0,0,0,0],"id":59,"left_children":[1,3,-1,-1,5,-1,-1],"loss_changes":[3.640513E0,3.4081335E0,0E0,0E0,2.0818744E0,0E0,0E0],"parents":[2147483647,0,0,1,1,4,4],"right_children":[2,4,-1,-1,6,-1,-1],"split_conditions":[4.8173424E-3,-5.13573E-3,-1.45683205E-2,-7.5584087E-3,4.8351646E-3,2.2585725E-2,-1.6634193E-3],"split_indices":[57,53,0,0,35,0,0],"split_type":[0,0,0,0,0,0,0],"sum_hessian":[6.647371E1,4.8447655E1,1.8026056E1,1.7836622E1,3.0611032E1,1.9868706E1,1.0742328E1],"tree_param":{"num_deleted":"0","num_feature":"66","num_nodes":"7","size_leaf_vector":"1"}},{"base_weights":[-2.7950266E-2,-1.8946064E-1,1.7116107E-1,-2.8346357E-1,3.3238796E-3,-2.6036662E-3,1.6434638E-2,-1.7239844E-2,-3.124488E-3],"categories":[],"categories_nodes":[],"categories_segments":[],"categories_sizes":[],"default_left":[0,0,0,0,0,0,0,0,0],"id":60,"left_children":[1,3,5,7,-1,-1,-1,-1,-1],"loss_changes":[2.771858E0,1.3136517E0,1.5546345E0,2.7387452E-1,0E0,0E0,0E0,0E0,0E0],"parents":[2147483647,0,0,1,1,2,2,3,3],"right_children":[2,4,6,8,-1,-1,-1,-1,-1],"split_conditions":[3E0,4.7415835E-3,-3.7467215E-4,2.946128E-3,3.3238796E-3,-2.6036662E-3,1.6434638E-2,-1.7239844E-2,-3.124488E-3],"split_indices":[28,51,32,32,0,0,0,0,0],"split_type":[0,0,0,0,0,0,0,0,0],"sum_hessian":[6.6109634E1,3.676896E1,2.9340677E1,2.6105328E1,1.0663632E1,1.4908548E1,1.4432129E1,1.604764E1,1.0057687E1],"tree_param":{"num_deleted":"0","num_feature":"66","num_nodes":"9","size_leaf_vector":"1"}},{"base_weights":[-5.8765737E-3,1.8983802E-1,-1.9761747E-1,3.673325E-1,-6.8068826E-3,2.1726384E-3,-2.9131135E-1,2.5849441E-2,1.4657575E-3,-3.582794E-3,-1.7870123E-2],"categories":[],"categories_nodes":[],"categories_segments":[],"categories_sizes":[],"default_left":[0,0,0,0,0,0,0,0,0,0,0],"id":61,"left_children":[1,3,5,7,-1,-1,9,-1,-1,-1,-1],"loss_changes":[3.350469E0,3.0653489E0,1.1418383E0,1.4373703E0,0E0,0E0,2.3264909E-1,0E0,0E0,0E0,0E0],"parents":[2147483647,0,0,1,1,2,2,3,3,6,6],"right_children":[2,4,6,8,-1,-1,10,-1,-1,-1,-1],"split_conditions":[-7.889546E-4,3.028009E-3,-5.189621E-3,-7.64526E-4,-6.8068826E-3,2.1726384E-3,-4.8123195E-4,2.5849441E-2,1.4657575E-3,-3.582794E-3,-1.7870123E-2],"split_indices":[46,49,51,47,0,0,37,0,0,0,0],"split_type":[0,0,0,0,0,0,0,0,0,0,0],"sum_hessian":[6.928574E1,3.4336693E1,3.4949055E1,2.1410124E1,1.292657E1,1.1282343E1,2.366671E1,1.1169926E1,1.0240198E1,1.0294536E1,1.3372174E1],"tree_param":{"num_deleted":"0","num_feature":"66","num_nodes":"11","size_leaf_vector":"1"}},{"base_weights":[1.0231045E-1,-1.3116045E-1,3.2871243E-1,7.48894E-3,-1.693779E-2,4.5972708E-1,-5.105632E-4,3.948725E-3,3.061072E-2],"categories":[],"categories_nodes":[],"categories_segments":[],"categories_sizes":[],"default_left":[0,0,0,0,0,0,0,0,0],"id":62,"left_children":[1,3,5,-1,-1,7,-1,-1,-1],"loss_changes":[4.5225153E0,3.1466947E0,1.918499E0,0E0,0E0,1.2940154E0,0E0,0E0,0E0],"parents":[2147483647,0,0,1,1,2,2,5,5],"right_children":[2,4,6,-1,-1,8,-1,-1,-1],"split_conditions":[-7.410152E-4,-3.3100406E-3,4.0584416E-4,7.48894E-3,-1.693779E-2,-5.313093E-3,-5.105632E-4,3.948725E-3,3.061072E-2],"split_indices":[40,59,56,0,0,55,0,0,0],"split_type":[0,0,0,0,0,0,0,0,0],"sum_hessian":[6.7402725E1,3.5254364E1,3.2148365E1,1.6164272E1,1.909009E1,2.061506E1,1.1533302E1,1.023583E1,1.0379231E1],"tree_param":{"num_deleted":"0","num_feature":"66","num_nodes":"9","size_leaf_vector":"1"}},{"base_weights":[4.7370933E-2,-1.7115286E-1,2.201541E-1,-1.5218118E-2,3.2505635E-3,8.6923605E-3,2.097932E-2,-9.1218185E-3,1.0401036E-2],"categories":[],"categories_nodes":[],"categories_segments":[],"categories_sizes":[],"default_left":[0,0,0,0,0,0,0,0,0],"id":63,"left_children":[1,3,5,-1,-1,7,-1,-1,-1],"loss_changes":[3.5182145E0,1.5305985E0,2.1074314E0,0E0,0E0,1.7085618E0,0E0,0E0,0E0],"parents":[2147483647,0,0,1,1,2,2,5,5],"right_children":[2,4,6,-1,-1,8,-1,-1,-1],"split_conditions":[-1.9212295E-3,1.6927634E-3,2.946128E-3,-1.5218118E-2,3.2505635E-3,3.7864444E-4,2.097932E-2,-9.1218185E-3,1.0401036E-2],"split_indices":[33,39,41,0,0,40,0,0,0],"split_type":[0,0,0,0,0,0,0,0,0],"sum_hessian":[7.320034E1,3.2363567E1,4.083677E1,1.8845772E1,1.35177965E1,2.4885775E1,1.59509945E1,1.3136808E1,1.1748965E1],"tree_param":{"num_deleted":"0","num_feature":"66","num_nodes":"9","size_leaf_vector":"1"}},{"base_weights":[-6.3019946E-2,1.3933065E-2,-1.9387893E-1,-2.920882E-1,3.4587048E-3,-1.793681E-2,-3.1414796E-3],"categories":[],"categories_nodes":[],"categories_segments":[],"categories_sizes":[],"default_left":[0,0,0,0,0,0,0],"id":64,"left_children":[1,-1,3,5,-1,-1,-1],"loss_changes":[3.6607153E0,0E0,1.6580749E0,4.3092132E-1,0E0,0E0,0E0],"parents":[2147483647,0,0,2,2,3,3],"right_children":[2,-1,4,6,-1,-1,-1],"split_conditions":[-1.0526316E-2,1.3933065E-2,5.8061634E-3,3.773585E-3,3.4587048E-3,-1.793681E-2,-3.1414796E-3],"split_indices":[35,0,50,37,0,0,0],"split_type":[0,0,0,0,0,0,0],"sum_hessian":[5.9789883E1,1.3429586E1,4.63603E1,3.295352E1,1.3406775E1,2.1155668E1,1.1797853E1],"tree_param":{"num_deleted":"0","num_feature":"66","num_nodes":"7","size_leaf_vector":"1"}},{"base_weights":[-1.23628974E-1,7.673113E-3,-2.0412974E-1,4.314847E-3,-2.7226114E-1,-1.7012496E-2,-4.0215394E-4],"categories":[],"categories_nodes":[],"categories_segments":[],"categories_sizes":[],"default_left":[0,0,0,0,0,0,0],"id":65,"left_children":[1,-1,3,-1,5,-1,-1],"loss_changes":[2.0698762E0,0E0,1.5273294E0,0E0,9.6621466E-1,0E0,0E0],"parents":[2147483647,0,0,2,2,4,4],"right_children":[2,-1,4,-1,6,-1,-1],"split_conditions":[-1.072882E-2,7.673113E-3,-1.2569316E-2,4.314847E-3,4E0,-1.7012496E-2,-4.0215394E-4],"split_indices":[37,0,50,0,6,0,0],"split_type":[0,0,0,0,0,0,0],"sum_hessian":[6.875056E1,1.3436703E1,5.5313854E1,1.0003834E1,4.531002E1,3.3748276E1,1.1561745E1],"tree_param":{"num_deleted":"0","num_feature":"66","num_nodes":"7","size_leaf_vector":"1"}},{"base_weights":[-1.1011639E-2,1.3143765E-2,-1.2524697E-1,-2.949593E-1,9.837137E-3,-3.6643294E-3,-1.8445544E-2],"categories":[],"categories_nodes":[],"categories_segments":[],"categories_sizes":[],"default_left":[0,0,0,0,0,0,0],"id":66,"left_children":[1,-1,3,5,-1,-1,-1],"loss_changes":[2.8805456E0,0E0,4.094902E0,4.856596E-1,0E0,0E0,0E0],"parents":[2147483647,0,0,2,2,3,3],"right_children":[2,-1,4,6,-1,-1,-1],"split_conditions":[-9.534286E-3,1.3143765E-2,2.6024773E-3,1.8E0,9.837137E-3,-3.6643294E-3,-1.8445544E-2],"split_indices":[34,0,63,62,0,0,0],"split_type":[0,0,0,0,0,0,0],"sum_hessian":[7.1543655E1,1.7227594E1,5.4316055E1,3.6118446E1,1.8197609E1,1.4015755E1,2.2102694E1],"tree_param":{"num_deleted":"0","num_feature":"66","num_nodes":"7","size_leaf_vector":"1"}},{"base_weights":[1.1666072E-1,-1.1799383E-2,2.4875301E-1,-3.2549375E-3,4.096002E-1,-1.6150493E-3,2.9700944E-2],"categories":[],"categories_nodes":[],"categories_segments":[],"categories_sizes":[],"default_left":[0,0,0,0,0,0,0],"id":67,"left_children":[1,-1,3,-1,5,-1,-1],"loss_changes":[3.8079772E0,0E0,3.0518324E0,0E0,3.2763457E0,0E0,0E0],"parents":[2147483647,0,0,2,2,4,4],"right_children":[2,-1,4,-1,6,-1,-1],"split_conditions":[-4.1606566E-3,-1.1799383E-2,-4.2863265E-3,-3.2549375E-3,-2.5305778E-3,-1.6150493E-3,2.9700944E-2],"split_indices":[65,0,40,0,31,0,0],"split_type":[0,0,0,0,0,0,0],"sum_hessian":[5.914563E1,1.3973923E1,4.5171707E1,1.7323034E1,2.7848671E1,1.062874E1,1.721993E1],"tree_param":{"num_deleted":"0","num_feature":"66","num_nodes":"7","size_leaf_vector":"1"}},{"base_weights":[7.6468244E-2,2.2573814E-1,-1.845744E-1,1.4996976E-2,2.7678436E-2,-1.5139259E-2,9.9522E-4,-1.5848222E-1,1.3650953E-2,2.3714358E-3,-1.435171E-2],"categories":[],"categories_nodes":[],"categories_segments":[],"categories_sizes":[],"default_left":[0,0,0,0,0,0,0,0,0,0,0],"id":68,"left_children":[1,3,5,7,-1,-1,-1,9,-1,-1,-1],"loss_changes":[3.5233574E0,3.7321455E0,8.9434874E-1,2.3973777E0,0E0,0E0,0E0,9.983599E-1,0E0,0E0,0E0],"parents":[2147483647,0,0,1,1,2,2,3,3,7,7],"right_children":[2,4,6,8,-1,-1,-1,10,-1,-1,-1],"split_conditions":[1.7220059E-3,-1.0980297E-3,0E0,5.5732485E-3,2.7678436E-2,-1.5139259E-2,9.9522E-4,7.757952E-4,1.3650953E-2,2.3714358E-3,-1.435171E-2],"split_indices":[63,63,46,52,0,0,0,44,0,0,0],"split_type":[0,0,0,0,0,0,0,0,0,0,0],"sum_hessian":[6.972894E1,4.522229E1,2.4506653E1,3.3892467E1,1.1329822E1,1.2482667E1,1.2023987E1,2.257329E1,1.1319179E1,1.11016E1,1.147169E1],"tree_param":{"num_deleted":"0","num_feature":"66","num_nodes":"11","size_leaf_vector":"1"}},{"base_weights":[3.126907E-2,1.9551408E-1,-1.600809E-1,3.393927E-1,-3.0009875E-3,-1.3532846E-2,2.7407845E-3,3.2014009E-3,2.2531059E-2],"categories":[],"categories_nodes":[],"categories_segments":[],"categories_sizes":[],"default_left":[0,0,0,0,0,0,0,0,0],"id":69,"left_children":[1,3,5,7,-1,-1,-1,-1,-1],"loss_changes":[2.765737E0,1.913228E0,1.1355795E0,6.6863465E-1,0E0,0E0,0E0,0E0,0E0],"parents":[2147483647,0,0,1,1,2,2,3,3],"right_children":[2,4,6,8,-1,-1,-1,-1,-1],"split_conditions":[-3.9292732E-4,9.3457947E-4,3.318584E-3,2E0,-3.0009875E-3,-1.3532846E-2,2.7407845E-3,3.2014009E-3,2.2531059E-2],"split_indices":[32,57,50,7,0,0,0,0,0],"split_type":[0,0,0,0,0,0,0,0,0],"sum_hessian":[6.804297E1,3.6497646E1,3.1545328E1,2.1250702E1,1.52469425E1,1.9114912E1,1.2430415E1,1.0647494E1,1.0603209E1],"tree_param":{"num_deleted":"0","num_feature":"66","num_nodes":"9","size_leaf_vector":"1"}},{"base_weights":[6.423368E-2,-1.0631483E-2,1.6761065E-1,2.87989E-1,-8.337371E-3,4.5367464E-1,-1.6240738E-3,2.8970486E-2,4.309043E-3],"categories":[],"categories_nodes":[],"categories_segments":[],"categories_sizes":[],"default_left":[0,0,0,0,0,0,0,0,0],"id":70,"left_children":[1,-1,3,5,-1,7,-1,-1,-1],"loss_changes":[2.5359516E0,0E0,2.937048E0,2.7251534E0,0E0,1.0102797E0,0E0,0E0,0E0],"parents":[2147483647,0,0,2,2,3,3,5,5],"right_children":[2,-1,4,6,-1,8,-1,-1,-1],"split_conditions":[-8.0831405E-3,-1.0631483E-2,4.2503863E-3,2.6425065E-3,-8.337371E-3,1.2695725E-3,-1.6240738E-3,2.8970486E-2,4.309043E-3],"split_indices":[35,0,54,37,0,30,0,0,0],"split_type":[0,0,0,0,0,0,0,0,0],"sum_hessian":[6.615176E1,1.5111601E1,5.1040154E1,3.8548435E1,1.2491719E1,2.2670893E1,1.5877541E1,1.2595072E1,1.0075821E1],"tree_param":{"num_deleted":"0","num_feature":"66","num_nodes":"9","size_leaf_vector":"1"}},{"base_weights":[-3.284043E-2,1.5650432E-1,-1.8196435E-1,-6.721175E-3,2.8907192E-1,4.598174E-3,-2.7374095E-1,2.1187032E-2,1.9475168E-3,-1.9093174E-2,-1.0324442E-3],"categories":[],"categories_nodes":[],"categories_segments":[],"categories_sizes":[],"default_left":[0,0,0,0,0,0,0,0,0,0,0],"id":71,"left_children":[1,3,5,-1,7,-1,9,-1,-1,-1,-1],"loss_changes":[2.8165185E0,2.1195188E0,1.6290034E0,0E0,9.8038435E-1,0E0,1.1128845E0,0E0,0E0,0E0,0E0],"parents":[2147483647,0,0,1,1,2,2,4,4,6,6],"right_children":[2,4,6,-1,8,-1,10,-1,-1,-1,-1],"split_conditions":[-1.9212295E-3,-7.404665E-3,-6.854257E-3,-6.721175E-3,-1.2269939E-3,4.598174E-3,2.5906735E-3,2.1187032E-2,1.9475168E-3,-1.9093174E-2,-1.0324442E-3],"split_indices":[33,59,42,0,40,0,47,0,0,0,0],"split_type":[0,0,0,0,0,0,0,0,0,0,0],"sum_hessian":[7.9663956E1,3.4880623E1,4.4783337E1,1.08749275E1,2.4005697E1,1.1233642E1,3.3549694E1,1.1092153E1,1.2913544E1,1.9942291E1,1.3607402E1],"tree_param":{"num_deleted":"0","num_feature":"66","num_nodes":"11","size_leaf_vector":"1"}},{"base_weights":[3.1120872E-2,1.828155E-2,-1.07066505E-1,9.021541E-2,-2.9003316E-1,-8.217244E-3,1.3358819E-2,-3.3144236E-3,-1.7524846E-2],"categories":[],"categories_nodes":[],"categories_segments":[],"categories_sizes":[],"default_left":[0,0,0,0,0,0,0,0,0],"id":72,"left_children":[1,-1,3,5,7,-1,-1,-1,-1],"loss_changes":[4.21688E0,0E0,2.6547632E0,2.2197497E0,2.6509833E-1,0E0,0E0,0E0,0E0],"parents":[2147483647,0,0,2,2,3,3,4,4],"right_children":[2,-1,4,6,8,-1,-1,-1,-1],"split_conditions":[-1.0077519E-2,1.828155E-2,-2.1873862E-3,-4.6242774E-3,-4.176158E-3,-8.217244E-3,1.3358819E-2,-3.3144236E-3,-1.7524846E-2],"split_indices":[53,0,51,48,43,0,0,0,0],"split_type":[0,0,0,0,0,0,0,0,0],"sum_hessian":[7.27562E1,1.6457783E1,5.6298416E1,2.95287E1,2.6769716E1,1.2401679E1,1.712702E1,1.015494E1,1.6614777E1],"tree_param":{"num_deleted":"0","num_feature":"66","num_nodes":"9","size_leaf_vector":"1"}},{"base_weights":[4.880225E-2,-9.830224E-2,2.686324E-1,-2.2544055E-1,8.589516E-3,-2.3475927E-3,2.1431927E-2,1.244488E-3,-1.7378049E-2],"categories":[],"categories_nodes":[],"categories_segments":[],"categories_sizes":[],"default_left":[0,0,0,0,0,0,0,0,0],"id":73,"left_children":[1,3,5,7,-1,-1,-1,-1,-1],"loss_changes":[2.9446433E0,2.3439856E0,2.0145757E0,1.4031374E0,0E0,0E0,0E0,0E0,0E0],"parents":[2147483647,0,0,1,1,2,2,3,3],"right_children":[2,4,6,8,-1,-1,-1,-1,-1],"split_conditions":[1.127635E-3,3.4000755E-3,4.384042E-4,-2.5622256E-3,8.589516E-3,-2.3475927E-3,2.1431927E-2,1.244488E-3,-1.7378049E-2],"split_indices":[65,40,43,36,0,0,0,0,0],"split_type":[0,0,0,0,0,0,0,0,0],"sum_hessian":[7.289231E1,4.698168E1,2.5910625E1,3.3068737E1,1.3912945E1,1.1094422E1,1.4816203E1,1.3453257E1,1.961548E1],"tree_param":{"num_deleted":"0","num_feature":"66","num_nodes":"9","size_leaf_vector":"1"}},{"base_weights":[5.783004E-2,2.2952037E-1,-1.8511993E-1,2.3359403E-2,-3.4909803E-2,1.7325962E-3,-1.6011685E-2,8.378061E-3,-1.1414119E-2],"categories":[],"categories_nodes":[],"categories_segments":[],"categories_sizes":[],"default_left":[0,0,0,0,0,0,0,0,0],"id":74,"left_children":[1,3,5,-1,7,-1,-1,-1,-1],"loss_changes":[3.6140182E0,3.259052E0,1.215397E0,0E0,1.659778E0,0E0,0E0,0E0,0E0],"parents":[2147483647,0,0,1,1,2,2,4,4],"right_children":[2,4,6,-1,8,-1,-1,-1,-1],"split_conditions":[9.3457947E-4,2E0,-1.2892135E-3,2.3359403E-2,-1.1459129E-3,1.7325962E-3,-1.6011685E-2,8.378061E-3,-1.1414119E-2],"split_indices":[57,10,53,0,32,0,0,0,0],"split_type":[0,0,0,0,0,0,0,0,0],"sum_hessian":[6.645566E1,3.9262215E1,2.7193445E1,1.6639257E1,2.2622957E1,1.3184044E1,1.4009401E1,1.1703546E1,1.0919413E1],"tree_param":{"num_deleted":"0","num_feature":"66","num_nodes":"9","size_leaf_vector":"1"}},{"base_weights":[1.0953641E-2,2.2107984E-1,-1.4941315E-1,5.1329407E-5,1.9476522E-2,5.4708015E-2,-1.7339235E-2,1.3790558E-2,-8.432947E-3],"categories":[],"categories_nodes":[],"categories_segments":[],"categories_sizes":[],"default_left":[0,0,0,0,0,0,0,0,0],"id":75,"left_children":[1,3,5,-1,-1,7,-1,-1,-1],"loss_changes":[2.9035559E0,1.3707246E0,2.1749701E0,0E0,0E0,2.0881205E0,0E0,0E0,0E0],"parents":[2147483647,0,0,1,1,2,2,5,5],"right_children":[2,4,6,-1,-1,8,-1,-1,-1],"split_conditions":[-3.2632342E-3,2.202643E-3,2.3282887E-3,5.1329407E-5,1.9476522E-2,-1.9454405E-3,-1.7339235E-2,1.3790558E-2,-8.432947E-3],"split_indices":[58,56,39,0,0,65,0,0,0],"split_type":[0,0,0,0,0,0,0,0,0],"sum_hessian":[6.636327E1,2.7086435E1,3.9276836E1,1.6106655E1,1.097978E1,2.2861597E1,1.6415237E1,1.03090925E1,1.25525055E1],"tree_param":{"num_deleted":"0","num_feature":"66","num_nodes":"9","size_leaf_vector":"1"}},{"base_weights":[2.0537099E-2,3.001706E-1,-2.0542803E-1,2.5115535E-3,2.3561483E-2,-1.48403365E-2,2.4047461E-3],"categories":[],"categories_nodes":[],"categories_segments":[],"categories_sizes":[],"default_left":[0,0,0,0,0,0,0],"id":76,"left_children":[1,3,5,-1,-1,-1,-1],"loss_changes":[6.006144E0,1.5668137E0,1.3731465E0,0E0,0E0,0E0,0E0],"parents":[2147483647,0,0,1,1,2,2],"right_children":[2,4,6,-1,-1,-1,-1],"split_conditions":[-2.814636E-3,1.0216193E-3,4.7415835E-3,2.5115535E-3,2.3561483E-2,-1.48403365E-2,2.4047461E-3],"split_indices":[33,64,51,0,0,0,0],"split_type":[0,0,0,0,0,0,0],"sum_hessian":[7.529402E1,3.218317E1,4.3110847E1,1.8332897E1,1.3850274E1,3.0434046E1,1.2676802E1],"tree_param":{"num_deleted":"0","num_feature":"66","num_nodes":"7","size_leaf_vector":"1"}},{"base_weights":[9.090326E-2,3.6106303E-1,-1.0875781E-1,-1.4300814E-3,2.8858522E-2,-2.5645512E-1,6.499748E-3,-1.6157707E-2,-3.2733108E-3],"categories":[],"categories_nodes":[],"categories_segments":[],"categories_sizes":[],"default_left":[0,0,0,0,0,0,0,0,0],"id":77,"left_children":[1,3,5,-1,-1,7,-1,-1,-1],"loss_changes":[4.6298485E0,3.1711583E0,2.1972148E0,0E0,0E0,2.472713E-1,0E0,0E0,0E0],"parents":[2147483647,0,0,1,1,2,2,5,5],"right_children":[2,4,6,-1,-1,8,-1,-1,-1],"split_conditions":[-4.6242774E-3,-8.7489065E-4,4.2775664E-3,-1.4300814E-3,2.8858522E-2,3.202847E-3,6.499748E-3,-1.6157707E-2,-3.2733108E-3],"split_indices":[50,48,59,0,0,52,0,0,0],"split_type":[0,0,0,0,0,0,0,0,0],"sum_hessian":[6.855272E1,2.5697647E1,4.2855076E1,1.2262877E1,1.3434769E1,2.601822E1,1.6836853E1,1.4154875E1,1.1863347E1],"tree_param":{"num_deleted":"0","num_feature":"66","num_nodes":"9","size_leaf_vector":"1"}},{"base_weights":[6.6583425E-2,3.8373753E-1,-1.4661552E-1,2.347256E-2,5.483794E-3,4.287707E-3,-1.4499257E-2],"categories":[],"categories_nodes":[],"categories_segments":[],"categories_sizes":[],"default_left":[0,0,0,0,0,0,0],"id":78,"left_children":[1,3,5,-1,-1,-1,-1],"loss_changes":[5.445616E0,2.3201036E-1,1.9284325E0,0E0,0E0,0E0,0E0],"parents":[2147483647,0,0,1,1,2,2],"right_children":[2,4,6,-1,-1,-1,-1],"split_conditions":[-6.329114E-3,9.3457947E-4,-1.2892135E-3,2.347256E-2,5.483794E-3,4.287707E-3,-1.4499257E-2],"split_indices":[57,42,48,0,0,0,0],"split_type":[0,0,0,0,0,0,0],"sum_hessian":[6.2215603E1,2.1794756E1,4.042085E1,1.1171448E1,1.0623308E1,1.6956642E1,2.3464207E1],"tree_param":{"num_deleted":"0","num_feature":"66","num_nodes":"7","size_leaf_vector":"1"}},{"base_weights":[-6.441705E-2,1.2837538E-1,-2.5488183E-1,-6.6186315E-3,1.6959108E-2,-2.3589784E-3,-1.6634075E-2],"categories":[],"categories_nodes":[],"categories_segments":[],"categories_sizes":[],"default_left":[0,0,0,0,0,0,0],"id":79,"left_children":[1,3,5,-1,-1,-1,-1],"loss_changes":[3.0903263E0,2.870077E0,5.088341E-1,0E0,0E0,0E0,0E0],"parents":[2147483647,0,0,1,1,2,2],"right_children":[2,4,6,-1,-1,-1,-1],"split_conditions":[-2.2655069E-4,3.7864444E-4,-5.8479533E-3,-6.6186315E-3,1.6959108E-2,-2.3589784E-3,-1.6634075E-2],"split_indices":[64,34,33,0,0,0,0],"split_type":[0,0,0,0,0,0,0],"sum_hessian":[6.524805E1,3.404593E1,3.1202116E1,1.6883413E1,1.7162518E1,1.2880146E1,1.832197E1],"tree_param":{"num_deleted":"0","num_feature":"66","num_nodes":"7","size_leaf_vector":"1"}},{"base_weights":[1.3342124E-1,2.501028E-1,-1.0373968E-2,-1.6673027E-3,3.5671595E-1,4.291771E-4,2.568779E-2],"categories":[],"categories_nodes":[],"categories_segments":[],"categories_sizes":[],"default_left":[0,0,0,0,0,0,0],"id":80,"left_children":[1,3,-1,-1,5,-1,-1],"loss_changes":[3.5339437E0,1.9624729E0,0E0,0E0,2.4262242E0,0E0,0E0],"parents":[2147483647,0,0,1,1,4,4],"right_children":[2,4,-1,-1,6,-1,-1],"split_conditions":[5.89391E-3,-7.572172E-3,-1.0373968E-2,-1.6673027E-3,-6.134969E-3,4.291771E-4,2.568779E-2],"split_indices":[30,41,0,0,56,0,0],"split_type":[0,0,0,0,0,0,0],"sum_hessian":[6.579875E1,5.100464E1,1.479411E1,1.581912E1,3.518552E1,1.4216463E1,2.0969057E1],"tree_param":{"num_deleted":"0","num_feature":"66","num_nodes":"7","size_leaf_vector":"1"}},{"base_weights":[3.461764E-3,-1.1699288E-2,1.5805513E-1,1.8655756E-2,-7.904825E-3],"categories":[],"categories_nodes":[],"categories_segments":[],"categories_sizes":[],"default_left":[0,0,0,0,0],"id":81,"left_children":[1,-1,3,-1,-1],"loss_changes":[3.1793344E0,0E0,4.147515E0,0E0,0E0],"parents":[2147483647,0,0,2,2],"right_children":[2,-1,4,-1,-1],"split_conditions":[-4.2863265E-3,-1.1699288E-2,7.34484E-4,1.8655756E-2,-7.904825E-3],"split_indices":[43,0,49,0,0],"split_type":[0,0,0,0,0],"sum_hessian":[6.653706E1,2.4212435E1,4.2324627E1,2.4117252E1,1.8207376E1],"tree_param":{"num_deleted":"0","num_feature":"66","num_nodes":"5","size_leaf_vector":"1"}},{"base_weights":[5.75374E-2,-1.2075283E-1,3.1753567E-1,-2.7639177E-1,1.2059982E-2,3.935149E-4,2.238812E-2,-1.748816E-2,-7.0435344E-4],"categories":[],"categories_nodes":[],"categories_segments":[],"categories_sizes":[],"default_left":[0,0,0,0,0,0,0,0,0],"id":82,"left_children":[1,3,5,7,-1,-1,-1,-1,-1],"loss_changes":[4.198674E0,3.825243E0,1.4260209E0,7.950201E-1,0E0,0E0,0E0,0E0,0E0],"parents":[2147483647,0,0,1,1,2,2,3,3],"right_children":[2,4,6,8,-1,-1,-1,-1,-1],"split_conditions":[2.918643E-3,3.318584E-3,-3.8428693E-3,3.322259E-3,1.2059982E-2,3.935149E-4,2.238812E-2,-1.748816E-2,-7.0435344E-4],"split_indices":[35,44,38,32,0,0,0,0,0],"split_type":[0,0,0,0,0,0,0,0,0],"sum_hessian":[7.230458E1,4.6069016E1,2.6235563E1,3.3869186E1,1.2199829E1,1.09061775E1,1.5329386E1,2.3860685E1,1.0008501E1],"tree_param":{"num_deleted":"0","num_feature":"66","num_nodes":"9","size_leaf_vector":"1"}},{"base_weights":[-1.5166967E-2,-1.4540227E-2,9.4500504E-2,2.522828E-1,-1.467703E-1,2.2434717E-2,-5.0221183E-3,1.2837262E-3,-1.2090025E-2],"categories":[],"categories_nodes":[],"categories_segments":[],"categories_sizes":[],"default_left":[0,0,0,0,0,0,0,0,0],"id":83,"left_children":[1,-1,3,5,7,-1,-1,-1,-1],"loss_changes":[2.6482975E0,0E0,2.7958846E0,3.3744042E0,5.785377E-1,0E0,0E0,0E0,0E0],"parents":[2147483647,0,0,2,2,3,3,4,4],"right_children":[2,-1,4,6,8,-1,-1,-1,-1],"split_conditions":[-1.0138249E-2,-1.4540227E-2,2.1542439E-3,7.9113926E-4,-2.3790642E-3,2.2434717E-2,-5.0221183E-3,1.2837262E-3,-1.2090025E-2],"split_indices":[33,0,42,56,35,0,0,0,0],"split_type":[0,0,0,0,0,0,0,0,0],"sum_hessian":[6.851821E1,1.4800867E1,5.3717346E1,3.2202E1,2.1515347E1,1.8936565E1,1.3265433E1,1.0237083E1,1.1278262E1],"tree_param":{"num_deleted":"0","num_feature":"66","num_nodes":"9","size_leaf_vector":"1"}},{"base_weights":[-8.7790765E-2,-2.403841E-1,1.5020795E-1,2.0503332E-3,-3.2686052E-1,-7.5928294E-3,1.7248586E-2,-3.2758575E-3,-1.9543115E-2],"categories":[],"categories_nodes":[],"categories_segments":[],"categories_sizes":[],"default_left":[0,0,0,0,0,0,0,0,0],"id":84,"left_children":[1,3,5,-1,7,-1,-1,-1,-1],"loss_changes":[3.2896943E0,1.4232838E0,2.7393456E0,0E0,4.4044113E-1,0E0,0E0,0E0,0E0],"parents":[2147483647,0,0,1,1,2,2,4,4],"right_children":[2,4,6,-1,8,-1,-1,-1,-1],"split_conditions":[2.3282887E-3,-7.905139E-3,0E0,2.0503332E-3,-7.404665E-3,-7.5928294E-3,1.7248586E-2,-3.2758575E-3,-1.9543115E-2],"split_indices":[37,32,50,0,55,0,0,0,0],"split_type":[0,0,0,0,0,0,0,0,0],"sum_hessian":[7.064039E1,4.2982105E1,2.7658285E1,1.1340061E1,3.1642044E1,1.1706064E1,1.5952221E1,1.020558E1,2.1436464E1],"tree_param":{"num_deleted":"0","num_feature":"66","num_nodes":"9","size_leaf_vector":"1"}},{"base_weights":[7.234391E-2,2.434893E-1,-1.4244297E-1,2.0827753E-2,-2.268971E-3,-1.4604397E-2,5.5234176E-3],"categories":[],"categories_nodes":[],"categories_segments":[],"categories_sizes":[],"default_left":[0,0,0,0,0,0,0],"id":85,"left_children":[1,3,5,-1,-1,-1,-1],"loss_changes":[3.163884E0,2.50576E0,1.8476386E0,0E0,0E0,0E0,0E0],"parents":[2147483647,0,0,1,1,2,2],"right_children":[2,4,6,-1,-1,-1,-1],"split_conditions":[-1.4749262E-3,3.240178E-3,2.367727E-4,2.0827753E-2,-2.268971E-3,-1.4604397E-2,5.5234176E-3],"split_indices":[37,54,64,0,0,0,0],"split_type":[0,0,0,0,0,0,0],"sum_hessian":[6.663403E1,3.6340813E1,3.029322E1,1.9961403E1,1.6379412E1,1.8058922E1,1.22343E1],"tree_param":{"num_deleted":"0","num_feature":"66","num_nodes":"7","size_leaf_vector":"1"}},{"base_weights":[-2.915734E-2,-1.3117517E-2,1.0505117E-1,2.3412816E-1,-6.310274E-3,2.1067379E-2,-1.6282933E-3],"categories":[],"categories_nodes":[],"categories_segments":[],"categories_sizes":[],"default_left":[0,0,0,0,0,0,0],"id":86,"left_children":[1,-1,3,5,-1,-1,-1],"loss_changes":[2.697096E0,0E0,1.9745356E0,2.114593E0,0E0,0E0,0E0],"parents":[2147483647,0,0,2,2,3,3],"right_children":[2,-1,4,6,-1,-1,-1],"split_conditions":[-7.6614376E-3,-1.3117517E-2,2.5906735E-3,-1.9538882E-3,-6.310274E-3,2.1067379E-2,-1.6282933E-3],"split_indices":[56,0,40,51,0,0,0],"split_type":[0,0,0,0,0,0,0],"sum_hessian":[6.737272E1,2.1122866E1,4.6249847E1,2.9602757E1,1.664709E1,1.3985802E1,1.5616956E1],"tree_param":{"num_deleted":"0","num_feature":"66","num_nodes":"7","size_leaf_vector":"1"}},{"base_weights":[-1.1150452E-1,8.742416E-3,-2.0989923E-1,-3.0387017E-1,5.787457E-3,-8.620575E-4,-1.8301826E-2],"categories":[],"categories_nodes":[],"categories_segments":[],"categories_sizes":[],"default_left":[0,0,0,0,0,0,0],"id":87,"left_children":[1,-1,3,5,-1,-1,-1],"loss_changes":[2.6848712E0,0E0,2.3644223E0,8.9554644E-1,0E0,0E0,0E0],"parents":[2147483647,0,0,2,2,3,3],"right_children":[2,-1,4,6,-1,-1,-1],"split_conditions":[-1.0297483E-2,8.742416E-3,4E0,-9.8648155E-3,5.787457E-3,-8.620575E-4,-1.8301826E-2],"split_indices":[36,0,15,41,0,0,0],"split_type":[0,0,0,0,0,0,0],"sum_hessian":[7.2264984E1,1.6493818E1,5.5771168E1,4.3800583E1,1.1970583E1,1.0083267E1,3.3717316E1],"tree_param":{"num_deleted":"0","num_feature":"66","num_nodes":"7","size_leaf_vector":"1"}},{"base_weights":[2.923746E-2,2.3559673E-1,-1.2516803E-1,-2.7278187E-3,2.129685E-2,-2.3449916E-1,4.6262047E-3,-1.5460699E-2,-1.0993219E-3],"categories":[],"categories_nodes":[],"categories_segments":[],"categories_sizes":[],"default_left":[0,0,0,0,0,0,0,0,0],"id":88,"left_children":[1,3,5,-1,-1,7,-1,-1,-1],"loss_changes":[2.7275765E0,2.2286503E0,1.4118037E0,0E0,0E0,5.075501E-1,0E0,0E0,0E0],"parents":[2147483647,0,0,1,1,2,2,5,5],"right_children":[2,4,6,-1,-1,8,-1,-1,-1],"split_conditions":[-4.6242774E-3,7.852375E-4,6.5412917E-3,-2.7278187E-3,2.129685E-2,4.0617385E-3,4.6262047E-3,-1.5460699E-2,-1.0993219E-3],"split_indices":[58,41,58,0,0,45,0,0,0],"split_type":[0,0,0,0,0,0,0,0,0],"sum_hessian":[6.634826E1,2.6146185E1,4.0202072E1,1.3183346E1,1.2962839E1,2.6247686E1,1.3954385E1,1.6053318E1,1.0194368E1],"tree_param":{"num_deleted":"0","num_feature":"66","num_nodes":"9","size_leaf_vector":"1"}},{"base_weights":[-4.828964E-2,1.926159E-2,-1.6206005E-1,-2.402021E-1,6.849331E-3,-3.3745077E-1,-1.5741341E-4,-3.471283E-3,-2.0004129E-2],"categories":[],"categories_nodes":[],"categories_segments":[],"categories_sizes":[],"default_left":[0,0,0,0,0,0,0,0,0],"id":89,"left_children":[1,-1,3,5,-1,7,-1,-1,-1],"loss_changes":[4.6688156E0,0E0,2.0114233E0,1.3889637E0,0E0,4.4334126E-1,0E0,0E0,0E0],"parents":[2147483647,0,0,2,2,3,3,5,5],"right_children":[2,-1,4,6,-1,8,-1,-1,-1],"split_conditions":[-1.2536565E-2,1.926159E-2,8.248969E-3,3.028009E-3,6.849331E-3,-6.6864784E-3,-1.5741341E-4,-3.471283E-3,-2.0004129E-2],"split_indices":[39,0,41,49,0,40,0,0,0],"split_type":[0,0,0,0,0,0,0,0,0],"sum_hessian":[7.200228E1,1.00076685E1,6.199461E1,5.0711292E1,1.1283319E1,3.295619E1,1.7755102E1,1.0236231E1,2.2719957E1],"tree_param":{"num_deleted":"0","num_feature":"66","num_nodes":"9","size_leaf_vector":"1"}},{"base_weights":[-3.7629E-2,-1.7648555E-1,1.7750578E-1,3.8704101E-3,-1.5163386E-2,1.6576493E-2,-4.043454E-3],"categories":[],"categories_nodes":[],"categories_segments":[],"categories_sizes":[],"default_left":[0,0,0,0,0,0,0],"id":90,"left_children":[1,3,5,-1,-1,-1,-1],"loss_changes":[2.5183814E0,1.8402109E0,1.6188121E0,0E0,0E0,0E0,0E0],"parents":[2147483647,0,0,1,1,2,2],"right_children":[2,4,6,-1,-1,-1,-1],"split_conditions":[2.108815E-3,-6.5014223E-3,-1.3328891E-3,3.8704101E-3,-1.5163386E-2,1.6576493E-2,-4.043454E-3],"split_indices":[33,49,40,0,0,0,0],"split_type":[0,0,0,0,0,0,0],"sum_hessian":[6.381644E1,3.9875633E1,2.394081E1,1.4577383E1,2.529825E1,1.322543E1,1.0715381E1],"tree_param":{"num_deleted":"0","num_feature":"66","num_nodes":"7","size_leaf_vector":"1"}},{"base_weights":[4.491064E-3,1.8923546E-1,-2.5426045E-1,2.1305962E-2,-4.1945383E-2,1.8387362E-3,-1.9043867E-2,-1.3616316E-2,8.617086E-3],"categories":[],"categories_nodes":[],"categories_segments":[],"categories_sizes":[],"default_left":[0,0,0,0,0,0,0,0,0],"id":91,"left_children":[1,3,5,-1,7,-1,-1,-1,-1],"loss_changes":[4.1336308E0,2.933959E0,1.4701786E0,0E0,2.175786E0,0E0,0E0,0E0,0E0],"parents":[2147483647,0,0,1,1,2,2,4,4],"right_children":[2,4,6,-1,8,-1,-1,-1,-1],"split_conditions":[2.108815E-3,-4.6242774E-3,-6.6137565E-3,2.1305962E-2,1.4919806E-3,1.8387362E-3,-1.9043867E-2,-1.3616316E-2,8.617086E-3],"split_indices":[33,38,48,0,38,0,0,0,0],"split_type":[0,0,0,0,0,0,0,0,0],"sum_hessian":[6.640709E1,4.031175E1,2.609534E1,1.5745518E1,2.456623E1,1.0062279E1,1.603306E1,1.0533328E1,1.4032903E1],"tree_param":{"num_deleted":"0","num_feature":"66","num_nodes":"9","size_leaf_vector":"1"}},{"base_weights":[1.4383435E-2,-1.3027458E-2,1.2586614E-1,1.8310163E-2,-2.5639903E-2,1.0502954E-2,-1.9133271E-1,-1.2534561E-3,-1.3797206E-2],"categories":[],"categories_nodes":[],"categories_segments":[],"categories_sizes":[],"default_left":[0,0,0,0,0,0,0,0,0],"id":92,"left_children":[1,-1,3,-1,5,-1,7,-1,-1],"loss_changes":[2.6875358E0,0E0,2.3338766E0,0E0,2.2404397E0,0E0,3.933314E-1,0E0,0E0],"parents":[2147483647,0,0,2,2,4,4,6,6],"right_children":[2,-1,4,-1,6,-1,8,-1,-1],"split_conditions":[-9.611688E-3,-1.3027458E-2,-2.1123786E-3,1.8310163E-2,-3.3088236E-3,1.0502954E-2,-7.7041605E-4,-1.2534561E-3,-1.3797206E-2],"split_indices":[38,0,38,0,47,0,45,0,0],"split_type":[0,0,0,0,0,0,0,0,0],"sum_hessian":[6.698449E1,1.5467679E1,5.151681E1,1.4439799E1,3.7077015E1,1.4199922E1,2.2877092E1,1.2087566E1,1.0789526E1],"tree_param":{"num_deleted":"0","num_feature":"66","num_nodes":"9","size_leaf_vector":"1"}},{"base_weights":[-1.757052E-2,-1.4983408E-1,1.5542863E-1,-2.8392687E-1,3.0766197E-3,-8.557505E-3,1.639208E-2,-1.7549979E-2,-3.3116215E-3],"categories":[],"categories_nodes":[],"categories_segments":[],"categories_sizes":[],"default_left":[0,0,0,0,0,0,0,0,0],"id":93,"left_children":[1,3,5,7,-1,-1,-1,-1,-1],"loss_changes":[2.075766E0,1.612692E0,2.8023598E0,2.467897E-1,0E0,0E0,0E0,0E0,0E0],"parents":[2147483647,0,0,1,1,2,2,3,3],"right_children":[2,4,6,8,-1,-1,-1,-1,-1],"split_conditions":[2.3282887E-3,8.156607E-4,-2.814636E-3,-1.1788981E-5,3.0766197E-3,-8.557505E-3,1.639208E-2,-1.7549979E-2,-3.3116215E-3],"split_indices":[35,39,49,65,0,0,0,0,0],"split_type":[0,0,0,0,0,0,0,0,0],"sum_hessian":[7.054028E1,4.07356E1,2.9804684E1,2.2823345E1,1.7912256E1,1.0323502E1,1.948118E1,1.2766447E1,1.0056898E1],"tree_param":{"num_deleted":"0","num_feature":"66","num_nodes":"9","size_leaf_vector":"1"}},{"base_weights":[1.0726846E-1,-1.2539493E-1,2.7977824E-1,-1.1698043E-2,3.8160596E-3,-3.17715E-4,2.36592E-2],"categories":[],"categories_nodes":[],"categories_segments":[],"categories_sizes":[],"default_left":[0,0,0,0,0,0,0],"id":94,"left_children":[1,3,5,-1,-1,-1,-1],"loss_changes":[3.5467627E0,1.0722243E0,2.7316825E0,0E0,0E0,0E0,0E0],"parents":[2147483647,0,0,1,1,2,2],"right_children":[2,4,6,-1,-1,-1,-1],"split_conditions":[-1.9607844E-3,1.4388489E-3,-1.4738394E-3,-1.1698043E-2,3.8160596E-3,-3.17715E-4,2.36592E-2],"split_indices":[47,39,50,0,0,0,0],"split_type":[0,0,0,0,0,0,0],"sum_hessian":[6.962623E1,3.0807453E1,3.881877E1,1.8988894E1,1.1818559E1,1.9556913E1,1.926186E1],"tree_param":{"num_deleted":"0","num_feature":"66","num_nodes":"7","size_leaf_vector":"1"}},{"base_weights":[6.560873E-2,-1.6286716E-2,1.8052053E-1,-2.446879E-2,2.3994425E-2,1.25124E-2,-1.9546741E-1,1.5773267E-3,-1.4921707E-2],"categories":[],"categories_nodes":[],"categories_segments":[],"categories_sizes":[],"default_left":[0,0,0,0,0,0,0,0,0],"id":95,"left_children":[1,-1,3,5,-1,-1,7,-1,-1],"loss_changes":[4.0665965E0,0E0,4.181752E0,2.7828283E0,0E0,0E0,9.288306E-1,0E0,0E0],"parents":[2147483647,0,0,2,2,3,3,6,6],"right_children":[2,-1,4,6,-1,-1,8,-1,-1],"split_conditions":[-1.0204081E-2,-1.6286716E-2,3.7144036E-3,-5.189621E-3,2.3994425E-2,1.25124E-2,-5.2630436E-4,1.5773267E-3,-1.4921707E-2],"split_indices":[35,0,52,55,0,0,64,0,0],"split_type":[0,0,0,0,0,0,0,0,0],"sum_hessian":[6.735343E1,1.1123802E1,5.6229633E1,3.8826332E1,1.7403301E1,1.3117688E1,2.5708643E1,1.0186464E1,1.5522178E1],"tree_param":{"num_deleted":"0","num_feature":"66","num_nodes":"9","size_leaf_vector":"1"}},{"base_weights":[-1.3337755E-1,-2.53889E-1,8.628848E-3,-3.224515E-1,9.125913E-4,-1.9518593E-3,-2.0290894E-2],"categories":[],"categories_nodes":[],"categories_segments":[],"categories_sizes":[],"default_left":[0,0,0,0,0,0,0],"id":96,"left_children":[1,3,-1,5,-1,-1,-1],"loss_changes":[3.4442906E0,1.2257395E0,0E0,1.0344992E0,0E0,0E0,0E0],"parents":[2147483647,0,0,1,1,3,3],"right_children":[2,4,-1,6,-1,-1,-1],"split_conditions":[6.179571E-3,7.939659E-3,8.628848E-3,-8.17757E-3,9.125913E-4,-1.9518593E-3,-2.0290894E-2],"split_indices":[30,59,0,59,0,0,0],"split_type":[0,0,0,0,0,0,0],"sum_hessian":[7.1531136E1,5.253861E1,1.8992527E1,4.0489166E1,1.204944E1,1.2540113E1,2.7949055E1],"tree_param":{"num_deleted":"0","num_feature":"66","num_nodes":"7","size_leaf_vector":"1"}},{"base_weights":[-5.8374207E-2,-1.620442E-2,1.22248694E-1,3.2526883E-1,-9.220232E-3,-1.3889659E-3,2.4165906E-2],"categories":[],"categories_nodes":[],"categories_segments":[],"categories_sizes":[],"default_left":[0,0,0,0,0,0,0],"id":97,"left_children":[1,-1,3,5,-1,-1,-1],"loss_changes":[4.1482897E0,0E0,3.9493723E0,2.1424208E0,0E0,0E0,0E0],"parents":[2147483647,0,0,2,2,3,3],"right_children":[2,-1,4,6,-1,-1,-1],"split_conditions":[2E0,-1.620442E-2,1.0629279E-3,-6.134969E-3,-9.220232E-3,-1.3889659E-3,2.4165906E-2],"split_indices":[0,0,65,57,0,0,0],"split_type":[0,0,0,0,0,0,0],"sum_hessian":[6.817833E1,2.4375998E1,4.380233E1,2.598914E1,1.7813189E1,1.0585584E1,1.5403557E1],"tree_param":{"num_deleted":"0","num_feature":"66","num_nodes":"7","size_leaf_vector":"1"}},{"base_weights":[8.2156084E-2,-1.1630858E-2,1.6374873E-1,-9.173356E-2,3.1548303E-1,-1.336808E-2,7.3300316E-3,2.4465961E-2,-2.264487E-3],"categories":[],"categories_nodes":[],"categories_segments":[],"categories_sizes":[],"default_left":[0,0,0,0,0,0,0,0,0],"id":98,"left_children":[1,-1,3,5,7,-1,-1,-1,-1],"loss_changes":[2.4795468E0,0E0,3.032471E0,1.8198892E0,3.1470942E0,0E0,0E0,0E0,0E0],"parents":[2147483647,0,0,2,2,3,3,4,4],"right_children":[2,-1,4,6,8,-1,-1,-1,-1],"split_conditions":[-1.1927664E-2,-1.1630858E-2,-1.8698579E-3,3E0,2.3282887E-3,-1.336808E-2,7.3300316E-3,2.4465961E-2,-2.264487E-3],"split_indices":[36,0,41,3,36,0,0,0,0],"split_type":[0,0,0,0,0,0,0,0,0],"sum_hessian":[7.1712585E1,1.0951938E1,6.076065E1,2.411366E1,3.6646988E1,1.3181965E1,1.0931696E1,2.2326172E1,1.4320818E1],"tree_param":{"num_deleted":"0","num_feature":"66","num_nodes":"9","size_leaf_vector":"1"}},{"base_weights":[-3.5518385E-3,1.4828676E-2,-1.0057174E-1,4.8914835E-2,-1.4165858E-2,-8.690543E-3,1.5811664E-1,1.59493E-2,-2.5490623E-3],"categories":[],"categories_nodes":[],"categories_segments":[],"categories_sizes":[],"default_left":[0,0,0,0,0,0,0,0,0],"id":99,"left_children":[1,-1,3,5,-1,-1,7,-1,-1],"loss_changes":[2.7432415E0,0E0,2.0760396E0,1.4310644E0,0E0,0E0,1.4117584E0,0E0,0E0],"parents":[2147483647,0,0,2,2,3,3,6,6],"right_children":[2,-1,4,6,-1,-1,8,-1,-1],"split_conditions":[1E0,1.4828676E-2,3E0,-7.905139E-3,-1.4165858E-2,-8.690543E-3,-1.5625E-3,1.59493E-2,-2.5490623E-3],"split_indices":[6,0,27,51,0,0,32,0,0],"split_type":[0,0,0,0,0,0,0,0,0],"sum_hessian":[7.396736E1,1.3045025E1,6.0922337E1,3.753878E1,2.3383558E1,1.0403513E1,2.7135267E1,1.2366082E1,1.4769184E1],"tree_param":{"num_deleted":"0","num_feature":"66","num_nodes":"9","size_leaf_vector":"1"}},{"base_weights":[-4.8713267E-2,1.5483427E-2,-1.5453248E-1,-1.6638858E-2,5.8313105E-2,1.704011E-2,-8.310158E-3],"categories":[],"categories_nodes":[],"categories_segments":[],"categories_sizes":[],"default_left":[0,0,0,0,0,0,0],"id":100,"left_children":[1,-1,3,-1,5,-1,-1],"loss_changes":[3.5327804E0,0E0,2.8060656E0,0E0,3.0962288E0,0E0,0E0],"parents":[2147483647,0,0,2,2,4,4],"right_children":[2,-1,4,-1,6,-1,-1],"split_conditions":[-1.1580382E-2,1.5483427E-2,-3.7467215E-4,-1.6638858E-2,-5.328597E-3,1.704011E-2,-8.310158E-3],"split_indices":[57,0,59,0,49,0,0],"split_type":[0,0,0,0,0,0,0],"sum_hessian":[7.0536545E1,1.16881E1,5.8848442E1,2.8960873E1,2.988757E1,1.0941476E1,1.8946093E1],"tree_param":{"num_deleted":"0","num_feature":"66","num_nodes":"7","size_leaf_vector":"1"}},{"base_weights":[-2.9525507E-2,-1.9580051E-1,1.281332E-1,1.260632E-3,-1.4487714E-2,-6.4962665E-3,1.5825925E-2],"categories":[],"categories_nodes":[],"categories_segments":[],"categories_sizes":[],"default_left":[0,0,0,0,0,0,0],"id":101,"left_children":[1,3,5,-1,-1,-1,-1],"loss_changes":[2.325015E0,9.548135E-1,2.6794486E0,0E0,0E0,0E0,0E0],"parents":[2147483647,0,0,1,1,2,2],"right_children":[2,4,6,-1,-1,-1,-1],"split_conditions":[-2.5622256E-3,-3.94633E-3,2E0,1.260632E-3,-1.4487714E-2,-6.4962665E-3,1.5825925E-2],"split_indices":[45,48,26,0,0,0,0],"split_type":[0,0,0,0,0,0,0],"sum_hessian":[6.912084E1,3.246369E1,3.665715E1,1.1866316E1,2.0597378E1,1.6777628E1,1.9879522E1],"tree_param":{"num_deleted":"0","num_feature":"66","num_nodes":"7","size_leaf_vector":"1"}},{"base_weights":[3.6228187E-2,2.1160115E-1,-1.115174E-1,1.9399246E-2,-3.4385843E-3,7.3975273E-3,-1.4169581E-2],"categories":[],"categories_nodes":[],"categories_segments":[],"categories_sizes":[],"default_left":[0,0,0,0,0,0,0],"id":102,"left_children":[1,3,5,-1,-1,-1,-1],"loss_changes":[2.2831624E0,2.2241042E0,2.623714E0,0E0,0E0,0E0,0E0],"parents":[2147483647,0,0,1,1,2,2],"right_children":[2,4,6,-1,-1,-1,-1],"split_conditions":[-1.8698579E-3,7.342144E-4,-1.250483E-3,1.9399246E-2,-3.4385843E-3,7.3975273E-3,-1.4169581E-2],"split_indices":[41,59,63,0,0,0,0],"split_type":[0,0,0,0,0,0,0],"sum_hessian":[6.900982E1,2.9578432E1,3.943138E1,1.5800249E1,1.3778184E1,1.626661E1,2.3164772E1],"tree_param":{"num_deleted":"0","num_feature":"66","num_nodes":"7","size_leaf_vector":"1"}},{"base_weights":[-5.2026354E-2,1.4431874E-1,-2.019022E-1,1.6716084E-2,-1.9992164E-3,1.0839731E-3,-1.7722793E-2],"categories":[],"categories_nodes":[],"categories_segments":[],"categories_sizes":[],"default_left":[0,0,0,0,0,0,0],"id":103,"left_children":[1,3,5,-1,-1,-1,-1],"loss_changes":[2.6451998E0,1.5504167E0,1.7662213E0,0E0,0E0,0E0,0E0],"parents":[2147483647,0,0,1,1,2,2],"right_children":[2,4,6,-1,-1,-1,-1],"split_conditions":[-1.7857143E-3,-6.329114E-3,7.598784E-4,1.6716084E-2,-1.9992164E-3,1.0839731E-3,-1.7722793E-2],"split_indices":[49,57,30,0,0,0,0],"split_type":[0,0,0,0,0,0,0],"sum_hessian":[6.998729E1,3.0457357E1,3.952993E1,1.0988866E1,1.9468493E1,1.9512066E1,2.0017862E1],"tree_param":{"num_deleted":"0","num_feature":"66","num_nodes":"7","size_leaf_vector":"1"}},{"base_weights":[-5.6529988E-2,-2.7843398E-1,1.11066535E-1,-9.928168E-4,-1.8230528E-2,-1.10842235E-1,1.7131466E-2,-1.2866542E-2,6.2391944E-3],"categories":[],"categories_nodes":[],"categories_segments":[],"categories_sizes":[],"default_left":[0,0,0,0,0,0,0,0,0],"id":104,"left_children":[1,3,5,-1,-1,7,-1,-1,-1],"loss_changes":[3.3993351E0,7.8781176E-1,3.179543E0,0E0,0E0,1.5422423E0,0E0,0E0,0E0],"parents":[2147483647,0,0,1,1,2,2,5,5],"right_children":[2,4,6,-1,-1,8,-1,-1,-1],"split_conditions":[-3.338102E-3,-5.4200543E-3,3.7864444E-4,-9.928168E-4,-1.8230528E-2,3E0,1.7131466E-2,-1.2866542E-2,6.2391944E-3],"split_indices":[42,35,41,0,0,21,0,0,0],"split_type":[0,0,0,0,0,0,0,0,0],"sum_hessian":[7.308847E1,2.8603294E1,4.4485176E1,1.0225437E1,1.8377857E1,2.5378254E1,1.910692E1,1.5081158E1,1.0297096E1],"tree_param":{"num_deleted":"0","num_feature":"66","num_nodes":"9","size_leaf_vector":"1"}},{"base_weights":[-9.606636E-4,2.2235373E-1,-2.0261252E-1,1.9125467E-2,-9.157901E-4,3.3041767E-3,-1.8333811E-2],"categories":[],"categories_nodes":[],"categories_segments":[],"categories_sizes":[],"default_left":[0,0,0,0,0,0,0],"id":105,"left_children":[1,3,5,-1,-1,-1,-1],"loss_changes":[3.7285469E0,1.5852196E0,2.15925E0,0E0,0E0,0E0,0E0],"parents":[2147483647,0,0,1,1,2,2],"right_children":[2,4,6,-1,-1,-1,-1],"split_conditions":[-3.0688294E-3,-3.7467215E-4,2E0,1.9125467E-2,-9.157901E-4,3.3041767E-3,-1.8333811E-2],"split_indices":[58,49,20,0,0,0,0],"split_type":[0,0,0,0,0,0,0],"sum_hessian":[6.2793743E1,2.9309282E1,3.3484463E1,1.4059629E1,1.5249653E1,1.4958384E1,1.8526077E1],"tree_param":{"num_deleted":"0","num_feature":"66","num_nodes":"7","size_leaf_vector":"1"}},{"base_weights":[-1.1225424E-1,-2.0423496E-1,9.674712E-3,-2.6289172E-2,-1.5572553E-2,-8.601549E-3,7.3507377E-3],"categories":[],"categories_nodes":[],"categories_segments":[],"categories_sizes":[],"default_left":[0,0,0,0,0,0,0],"id":106,"left_children":[1,3,-1,5,-1,-1,-1],"loss_changes":[2.765981E0,1.2473364E0,0E0,1.1903918E0,0E0,0E0,0E0],"parents":[2147483647,0,0,1,1,3,3],"right_children":[2,4,-1,6,-1,-1,-1],"split_conditions":[9.060563E-3,-2.814636E-3,9.674712E-3,-3.7467215E-4,-1.5572553E-2,-8.601549E-3,7.3507377E-3],"split_indices":[35,42,0,34,0,0,0],"split_type":[0,0,0,0,0,0,0],"sum_hessian":[7.430114E1,5.967024E1,1.4630903E1,2.7116749E1,3.255349E1,1.4769571E1,1.23471775E1],"tree_param":{"num_deleted":"0","num_feature":"66","num_nodes":"7","size_leaf_vector":"1"}},{"base_weights":[1.0163767E-1,-1.6975763E-1,2.3679057E-1,-1.4647267E-2,1.7466681E-3,-5.9745177E-3,3.5373372E-1,3.036275E-2,7.703539E-2,1.2559003E-2,-7.349553E-3],"categories":[],"categories_nodes":[],"categories_segments":[],"categories_sizes":[],"default_left":[0,0,0,0,0,0,0,0,0,0,0],"id":107,"left_children":[1,3,5,-1,-1,-1,7,-1,9,-1,-1],"loss_changes":[3.4884396E0,9.5456517E-1,2.937062E0,0E0,0E0,0E0,2.8965383E0,0E0,1.7106615E0,0E0,0E0],"parents":[2147483647,0,0,1,1,2,2,6,6,8,8],"right_children":[2,4,6,-1,-1,-1,8,-1,10,-1,-1],"split_conditions":[-6.6137565E-3,-2.3790642E-3,-7.444169E-3,-1.4647267E-2,1.7466681E-3,-5.9745177E-3,-4.6242774E-3,3.036275E-2,-6.182414E-4,1.2559003E-2,-7.349553E-3],"split_indices":[48,30,57,0,0,0,47,0,65,0,0],"split_type":[0,0,0,0,0,0,0,0,0,0,0],"sum_hessian":[7.414616E1,2.3797966E1,5.0348194E1,1.2165128E1,1.1632838E1,1.2388221E1,3.7959972E1,1.3575307E1,2.4384665E1,1.3037798E1,1.1346868E1],"tree_param":{"num_deleted":"0","num_feature":"66","num_nodes":"11","size_leaf_vector":"1"}},{"base_weights":[-1.590673E-2,1.5637307E-1,-1.7982557E-1,-1.4884413E-3,1.4796919E-2,-1.3153537E-2,2.491368E-3],"categories":[],"categories_nodes":[],"categories_segments":[],"categories_sizes":[],"default_left":[0,0,0,0,0,0,0],"id":108,"left_children":[1,3,5,-1,-1,-1,-1],"loss_changes":[2.64014E0,1.2851084E0,1.0383211E0,0E0,0E0,0E0,0E0],"parents":[2147483647,0,0,1,1,2,2],"right_children":[2,4,6,-1,-1,-1,-1],"split_conditions":[-2.1123786E-3,8.156607E-4,2.6666667E0,-1.4884413E-3,1.4796919E-2,-1.3153537E-2,2.491368E-3],"split_indices":[59,39,61,0,0,0,0],"split_type":[0,0,0,0,0,0,0],"sum_hessian":[7.3532196E1,3.6076202E1,3.7455994E1,1.8829643E1,1.7246557E1,2.6422981E1,1.1033011E1],"tree_param":{"num_deleted":"0","num_feature":"66","num_nodes":"7","size_leaf_vector":"1"}},{"base_weights":[-1.6867343E-2,7.809599E-2,-1.4860274E-2,-9.151705E-3,2.0481117E-1,2.9990643E-1,-3.952149E-3,-3.12574E-4,2.7403012E-2],"categories":[],"categories_nodes":[],"categories_segments":[],"categories_sizes":[],"default_left":[0,0,0,0,0,0,0,0,0],"id":109,"left_children":[1,3,-1,-1,5,7,-1,-1,-1],"loss_changes":[2.3881435E0,2.6386425E0,0E0,0E0,1.6078081E0,3.0826519E0,0E0,0E0,0E0],"parents":[2147483647,0,0,1,1,4,4,5,5],"right_children":[2,4,-1,-1,6,8,-1,-1,-1],"split_conditions":[4E0,-7.827789E-3,-1.4860274E-2,-9.151705E-3,6.0072085E-3,-1.9538882E-3,-3.952149E-3,-3.12574E-4,2.7403012E-2],"split_indices":[27,58,0,0,59,59,0,0,0],"split_type":[0,0,0,0,0,0,0,0,0],"sum_hessian":[7.098756E1,5.8414215E1,1.257334E1,1.7632751E1,4.0781464E1,3.0123981E1,1.0657483E1,1.784989E1,1.2274091E1],"tree_param":{"num_deleted":"0","num_feature":"66","num_nodes":"9","size_leaf_vector":"1"}},{"base_weights":[-9.064316E-4,1.458395E-1,-1.92395E-1,-7.4264123E-3,2.745764E-1,-1.4267287E-2,1.4454311E-3,1.8558877E-3,2.3060411E-2],"categories":[],"categories_nodes":[],"categories_segments":[],"categories_sizes":[],"default_left":[0,0,0,0,0,0,0,0,0],"id":110,"left_children":[1,3,5,-1,7,-1,-1,-1,-1],"loss_changes":[2.462563E0,2.289323E0,8.6417973E-1,0E0,1.5152135E0,0E0,0E0,0E0,0E0],"parents":[2147483647,0,0,1,1,2,2,4,4],"right_children":[2,4,6,-1,8,-1,-1,-1,-1],"split_conditions":[3.6616623E-4,-7.4211503E-3,2.9143898E-3,-7.4264123E-3,-6.6137565E-3,-1.4267287E-2,1.4454311E-3,1.8558877E-3,2.3060411E-2],"split_indices":[39,44,34,0,39,0,0,0,0],"split_type":[0,0,0,0,0,0,0,0,0],"sum_hessian":[6.76499E1,3.9649044E1,2.800086E1,1.1596141E1,2.8052902E1,1.7680807E1,1.0320053E1,1.7621384E1,1.0431519E1],"tree_param":{"num_deleted":"0","num_feature":"66","num_nodes":"9","size_leaf_vector":"1"}},{"base_weights":[-6.344844E-2,-1.7566334E-1,1.6018841E-2,-1.7904289E-2,1.5896347E-1,1.391198E-2,-1.6991108E-3],"categories":[],"categories_nodes":[],"categories_segments":[],"categories_sizes":[],"default_left":[0,0,0,0,0,0,0],"id":111,"left_children":[1,3,-1,-1,5,-1,-1],"loss_changes":[3.9554663E0,4.684101E0,0E0,0E0,8.0127007E-1,0E0,0E0],"parents":[2147483647,0,0,1,1,4,4],"right_children":[2,4,-1,-1,6,-1,-1],"split_conditions":[1.1096316E-2,2.5906735E-3,1.6018841E-2,-1.7904289E-2,8.248969E-3,1.391198E-2,-1.6991108E-3],"split_indices":[36,43,0,0,43,0,0],"split_type":[0,0,0,0,0,0,0],"sum_hessian":[6.876968E1,5.7408974E1,1.13607E1,3.670055E1,2.0708424E1,1.0065477E1,1.0642946E1],"tree_param":{"num_deleted":"0","num_feature":"66","num_nodes":"7","size_leaf_vector":"1"}},{"base_weights":[9.069086E-2,-1.4113679E-2,1.8901432E-1,3.5015926E-1,-4.5342804E-3,2.1675887E-2,3.2995981E-3,9.912513E-3,-1.5186465E-1,-6.30779E-4,-1.0748375E-2],"categories":[],"categories_nodes":[],"categories_segments":[],"categories_sizes":[],"default_left":[0,0,0,0,0,0,0,0,0,0,0],"id":112,"left_children":[1,-1,3,5,7,-1,-1,-1,9,-1,-1],"loss_changes":[3.5657592E0,0E0,